,0,1,2,3,4,5,6,7,8,9,10,11,12,13,14,15,16,17,18,19,20,21,22,23,24,25,26,27,28,29,30,31,32,33,34,35,36,37,38,39,40,41,42,43,44,45,46,47,48,49,50,51,52,53,54,55,56,57,58,59,60,61,62,63,64,65,66,67,68,69,70,71,72,73,74,75,76,77,78,79,80,81,82,83,84,85,86,87,88,89,90,91,92,93,94,95,96,97,98,99,100,101,102,103,104,105,106,107,108,109,110,111,112,113,114,115,116,117,118,119,120,121,122,123,124,125,126,127,128,129,130,131,132,133,134,135,136,137,138,139,140,141,142,143,144,145,146,147,148,149,150,151,152,153,154,155,156,157,158,159,160,161,162,163,164,165,166,167,168,169,170,171,172,173,174,175,176,177,178,179,180,181,182,183,184,185,186,187,188,189,190,191,192,193,194,195,196,197,198,199,200,201,202,203,204,205,206,207,208,209,210,211,212,213,214,215,216,217,218,219,220,221,222,223,224,225,226,227,228,229,230,231,232,233,234,235,236,237,238,239,240,241,242,243,244,245,246,247,248,249,250,251,252,253,254,255,256,257,258,259,260,261,262,263,264,265,266,267,268,269,270,271,272,273,274,275,276,277,278,279,280,281,282,283,284,285,286,287,288,289,290,291,292,293,294,295,296,297,298,299,300,301,302,303,304,305,306,307,308,309,310,311,312,313,314,315,316,317,318,319,320,321,322,323,324,325,326,327,328,329,330,331,332,333,334,335,336,337,338,339,340,341,342,343,344,345,346,347,348,349,350,351,352,353,354,355,356,357,358,359,360,361,362,363,364,365,366,367,368,369,370,371,372,373,374,375,376,377,378,379,380,381,382,383,384,385,386,387,388,389,390,391,392,393,394,395,396,397,398,399
r0srju,0.24392025,0.12899296,0.18842204,-0.14330597,0.05804403,-0.07723664,-0.19285169,0.104844026,0.048706807,0.1188127,-0.054983884,-0.11093503,0.17450732,-0.1744691,-0.09194386,-0.14825039,-0.12054333,-0.17462532,-0.056190476,0.25651675,0.09511643,-0.12807807,0.21308187,-0.058608886,-0.12921263,-0.13138814,0.15695915,0.13410482,-0.048270974,-0.054253098,-0.2743205,-0.04100346,-0.2834685,-0.14522329,0.019606363,0.03542449,0.012629467,0.1497569,-0.16021311,-0.16790134,0.11567659,0.08123721,0.015690219,-0.21778464,0.13166396,-0.11397436,-0.1763841,-0.21256717,-0.25294608,-0.003202264,0.11268132,0.0054993313,-0.028279355,-0.09104714,0.0046082283,-0.14736003,-0.074924156,-0.102415524,0.20573789,0.18043408,-0.09948594,0.03183345,-0.13483599,-0.18452509,-0.060001202,0.10135851,-0.043940183,0.09976365,0.040385175,0.011160499,0.120991476,-0.10185281,0.07689272,-0.0030114776,0.28760636,0.13951397,-0.22318126,-0.12917191,-0.096722156,0.08000196,0.102778845,0.0884599,-0.020573258,-0.16584136,0.17269169,-0.13468212,0.04406417,0.114253424,0.058731392,-0.13680756,0.26513433,-0.15648666,0.2800704,0.11738584,-0.10963681,-0.1830476,-0.16489501,0.19381423,0.13581134,-0.075830944,0.1346859,0.023750832,-0.24444526,-0.20736311,0.13893855,-0.04106818,0.09960929,0.03555097,-0.20246647,-0.22785854,0.17697473,0.14454032,-0.18829237,-0.14609875,0.13243262,0.1210136,0.1470363,0.12774292,0.059527308,-0.08723088,-0.06702795,-0.101157814,-0.14385842,-0.12636252,-0.16108607,0.0031457131,-0.20246539,-0.113729894,0.21882416,0.13617498,-0.15040958,0.04920925,-0.07107037,-0.12560679,-0.15352926,0.16734588,-0.005261281,0.16987173,0.17829171,0.18308717,-0.32560745,-0.1879959,0.16295524,0.14414033,-0.230997,-0.024256432,0.14870162,-0.17647845,0.024155222,-0.15027052,-0.12006489,0.088429324,0.10287507,0.17244078,-0.10221559,0.16351408,0.1820237,-0.122705676,0.21911617,0.13898978,0.02123949,0.15353148,-0.09891188,-0.18835735,-0.17501143,0.28720793,0.1381579,0.060838718,-0.099213466,-0.12764338,0.19928265,-0.10339512,-0.16458412,-0.14404288,0.13412467,-0.0024162035,0.12584294,0.26361272,-0.15148564,-0.22055024,0.22722065,-0.13236006,-0.16557887,0.06367096,-0.102107875,0.10114732,0.115310326,-0.15829232,0.05241407,-0.36062747,0.13037789,0.14717014,-0.00037312743,0.15295242,-0.13933788,0.05522182,0.05748711,0.14049444,0.11865805,-0.16237347,0.1847483,-0.19711179,0.051023927,-0.2388813,-0.19956711,-0.27371395,0.08380596,-0.09579444,-0.11075796,0.033490114,-0.2798581,-0.04466581,0.15045443,0.024511438,0.24588859,0.2970883,0.14197293,0.10816395,0.16116807,0.017913384,-0.18221816,-0.10914635,-0.24477363,0.2924472,0.09381545,0.030307772,0.14150968,-0.121700175,-0.0630044,0.060406536,0.16156368,-0.1891108,-0.02391416,-0.16276634,0.30342406,0.17763641,0.16550587,-0.0787566,0.21507047,0.013700596,-0.18083031,0.18327813,-0.06760919,-0.10666153,0.05832719,-0.18178484,-0.09835581,-0.22370231,0.14682296,-0.0035932644,0.12393454,0.21735746,0.088921085,-0.15402041,-0.083346166,0.130615,-0.16649297,0.23608054,-0.043539155,0.30727732,0.16563292,0.14865398,-0.2043032,0.23123015,-0.10425258,-0.21169741,-0.034125008,0.1438394,0.3034952,0.027024599,0.08886415,0.04784466,0.19382952,-0.11129853,-0.045137264,-0.18187144,-0.1140715,-0.016409602,0.16960834,0.10424406,0.048499156,0.16584677,-0.01620309,0.12858695,0.11580089,0.23091613,-0.061941758,0.3132294,-0.15577497,0.041919257,0.091381505,0.021117894,-0.2450832,-0.2410275,0.10025275,0.0906422,-0.025135662,-0.041974634,-0.11312355,-0.24008054,-0.023962602,-0.028791457,-0.2909914,-0.22338304,0.06165656,-0.2211402,-0.07565772,-0.0094043985,-0.025346557,0.1588525,0.20359741,-0.058490746,-0.14515065,-0.2104941,-0.13743067,-0.09571113,-0.06720903,-0.13167202,0.24216582,0.19553962,0.080610566,0.09498535,0.12943526,0.15973045,0.25752044,-0.100169756,0.09443839,0.1189709,0.10456679,0.14022857,0.059699263,-0.15529683,0.21609122,0.19626111,0.17782156,0.012753219,-0.10581289,-0.17965767,0.1961531,-0.27748555,-0.1186092,-0.046666134,0.14065076,0.09272479,-0.19396937,0.113728546,0.030849628,-0.05076605,-0.088346615,-0.06917772,-0.053772286,0.21158287,0.008036154,-0.1211484,-0.02706756,0.2232874,0.18324779,-0.18563505,-0.099409305,0.28455228,-0.025318976,0.068443954,0.12708135,-0.15498266,-0.106655866,0.18871024,-0.20761064,-0.06368457,0.23781572,0.053993277,-0.05535582,-0.08339493,0.15762332,-0.12970997,0.036697064,0.16180904,-0.19332208,0.1782231,-0.118298866,0.08364723,-0.1278514,-0.075159945,-0.04336816,-0.16647013,-0.19607517,-0.08419856,-0.34902483,0.22864951,-0.19305861,-0.051739316,-0.11899788,-0.15381494,-0.09679685,-0.033287954,0.07330745,0.13583992,-0.17188907,0.29957554,-0.11633382,0.08576703
431kz1,0.05252734,0.13107432,0.0962,-0.14126426,0.09332982,-0.054322775,-0.06412194,0.09236265,-0.09848836,0.14260921,-0.14745815,-0.003386977,0.1144315,-0.13688639,-0.04308519,-0.16610037,-0.10550995,-0.20172736,-0.09147197,-0.060377393,0.12910357,-0.2657939,0.052154534,-0.13079762,-0.17838414,-0.11200193,0.16378213,0.17352295,-0.052304324,-0.0005529284,-0.060677975,-0.19344631,-0.20928048,-0.13581333,-0.010679854,0.09301241,-0.10825331,0.09322425,-0.15152575,-0.24087678,0.023721162,0.103255495,-0.085764244,-0.06604232,0.3183445,-0.11949983,-0.136558,-0.07981001,-0.10389262,-0.21991201,0.06987219,-0.2196258,0.18248558,-0.23961823,0.120204695,-0.13902399,-0.0358391,-0.11249195,0.10880405,0.1544914,-0.18616027,0.118294135,-0.061937876,-0.005731471,-0.115645185,0.12692924,-0.14453758,0.13923231,0.18095528,-0.18253651,0.0033199645,-0.06749179,0.020373737,-0.042775284,0.11824984,0.2560396,-0.111121304,-0.1683959,-0.15155901,0.096109,0.109408624,0.009581567,0.06662645,-0.11610774,0.11162591,-0.10816654,0.04927918,0.104264006,0.2350092,-0.23020113,0.1124588,-0.12430942,0.16093478,0.1633134,-0.09189155,-0.056432843,-0.11671668,0.15564315,0.13920234,-0.14409423,0.11684103,0.080525674,-0.20079575,-0.06470181,0.21266,-0.09272825,0.08718585,0.1415008,-0.085083425,-0.059346575,0.08304255,0.07818511,-0.049549043,-0.040860794,0.22973993,-0.013118467,0.14131229,0.2350539,0.20443097,-0.13179871,-0.1152791,-0.2056353,-0.31856015,-0.22851752,-0.19354014,-0.20425957,-0.027555523,-0.17276987,0.0041922014,0.12274281,-0.18505546,0.15569155,-0.13863339,-0.055513676,-0.08920227,0.15190695,-0.33369455,0.255678,0.115093105,0.07338039,-0.10479835,-0.123844035,-0.0007312381,0.17427593,-0.12682532,0.09844995,0.10923082,-0.0075183176,0.011364093,-0.10341688,-0.15230416,0.12707472,0.221056,0.2836277,-0.026712772,0.06289624,0.15014909,-0.34275642,0.13649322,0.13477461,-0.17292258,0.16710773,-0.09829524,-0.17603338,-0.18494874,0.18644308,0.08337703,-0.19535244,-0.069031045,-0.19300382,0.13241202,-0.116014,-0.067059755,-0.021028051,0.12569372,-0.13546048,0.13714132,0.24553081,-0.16948679,-0.11743982,0.22353582,-0.1640465,-0.13637465,0.08310253,-0.118103385,0.09452655,0.20973319,-0.019962143,0.108947664,-0.1572598,0.1838855,0.19223545,0.0037662946,0.11721903,-0.26987404,0.2997286,-0.25844353,0.1755098,0.13181922,-0.10399037,0.08334243,-0.11296063,0.11652194,-0.1958717,-0.10188045,-0.35178795,0.1963815,-0.21253982,-0.18360859,0.19975126,-0.01284469,-0.13273568,0.12787554,0.15222383,0.16091996,0.16671081,-0.024097107,0.2540698,0.12187541,-0.24904525,-0.07444963,-0.20033994,-0.05398371,0.13170534,0.23501034,-0.11357138,0.21476158,-0.1303364,-0.08365465,0.08259217,0.102466516,-0.048721246,-0.24191222,-0.1617402,-0.13541108,0.1636121,0.068109296,-0.1754529,0.2147302,0.055750914,-0.09620378,0.014381311,-0.120656356,-0.17155215,0.0918445,-0.2527434,-0.2613382,-0.10656496,0.08315834,0.18983045,0.20042351,0.28981876,0.15817478,-0.18419933,-0.09265132,0.14178109,-0.13431421,0.103085086,-0.054977402,0.025106013,0.10780473,0.101829,-0.18547301,0.064811625,-0.18651164,-0.12118751,-0.11254829,0.15644641,0.063108034,0.23068747,0.10247298,0.16884182,0.04729461,-0.09694876,0.0008298913,-0.13090609,-0.15147911,-0.08175407,0.1498296,-0.0074127032,0.15554732,0.10387984,-0.14978902,0.19010727,0.19603667,0.074288316,-0.014989463,0.13729672,-0.09910599,0.17731774,-0.15619189,0.029762538,-0.10844359,-0.13381457,-0.010379884,0.25693554,0.012442317,0.15431696,-0.10730219,-0.0916907,-0.17411426,0.13980553,-0.17469893,-0.11942401,0.14016917,-0.14971468,-0.059952673,-0.05193352,0.17780106,0.089975126,0.051601328,-0.30908147,-0.18002364,-0.009444807,-0.28714454,-0.23702297,-0.13525563,-0.1218316,0.011060092,0.10289957,0.050578404,0.10245971,-0.022449546,-0.12555416,0.15662381,-0.21215473,0.20676951,0.12927935,0.15509164,0.2912506,0.2993083,-0.17088188,-0.053884268,0.1933377,0.24899623,0.1963291,-0.12949933,-0.26973873,0.15059835,-0.22766438,0.027650053,0.053489026,0.21489117,0.1529232,-0.20522197,0.1027057,0.105083816,-0.17678745,-0.08758078,-0.11826489,-0.07632189,0.1935904,-0.11390147,-0.1455539,-0.23721822,0.03872663,-0.084387735,-0.03809593,-0.150283,-0.02066183,-0.0387261,0.07341147,0.10639386,-0.1844686,-0.13501662,0.085686736,-0.16190884,-0.101079375,0.20192489,-0.0010269259,-0.22421284,-0.10969444,0.13539407,-0.08816423,-0.15002383,0.20538332,-0.067370646,0.108655125,-0.08067165,0.033749055,-0.17007539,0.041668307,0.019873232,-0.26588282,-0.12177742,-0.09886404,-0.12619504,0.1285346,0.039481148,-0.18141043,-0.015666304,-0.17226548,-0.04762356,0.016151115,0.10273827,0.06730641,-0.16747935,0.08646547,-0.0401758,0.087370284
xi0aej,0.24215783,0.11684956,-0.008600117,-0.005749278,0.14754179,-0.2627675,-0.050458383,-0.0045779734,-0.20181103,0.07912406,-0.26562962,0.005563212,0.35073373,-0.079126745,-0.19335368,-0.058073048,-0.15797761,-0.050909743,-0.09645095,0.055441715,0.12506709,-0.1554369,-0.11325801,-0.16558824,-0.1705117,-0.14991039,0.1460678,0.18689731,-0.24585328,0.12629028,-0.003195507,-0.09021134,-0.15094292,-0.14812636,-0.065312795,0.15910274,-0.21395496,0.28806216,-0.022332953,-0.18478042,0.024385838,0.15549143,-0.1439582,-0.1670587,0.22203815,-0.108803414,-0.34634954,-0.061786726,-0.2512287,-0.13179123,0.15389012,-0.14913276,0.0093725445,-0.13572071,0.19580176,-0.13784356,-0.17597447,-0.10714451,0.13694835,0.096834384,-0.038401596,0.13537762,-0.13768312,-0.10911032,-0.102813266,0.13814001,-0.19492757,0.13350673,0.020187253,-0.05008106,0.14892231,-0.14261769,0.22111529,-0.086511895,0.07737274,0.014018215,-0.32871893,-0.0625719,-0.035895083,0.07021521,0.18964574,-0.088431485,0.2342148,-0.15957962,0.120750554,-0.12737265,0.23670267,0.2649,0.1595877,-0.26624852,0.10618855,0.07522442,0.24758796,0.07370064,-0.107279375,-0.20341712,-0.104769655,0.059023507,0.25534242,-0.086649835,0.15207179,0.2239144,-0.2509589,-0.08598791,0.0936797,-0.14503695,0.06290624,-0.01304222,-0.17219727,-0.0020382453,0.07399847,0.1784228,-0.0705619,-0.1284447,0.03001767,-0.00089315855,0.28173208,0.15107544,0.20367475,-0.1399443,-0.21782464,-0.25494882,-0.24975213,-0.111118935,-0.20407328,-0.068141915,-0.1720241,-0.073432826,0.01859086,0.079463296,-0.23916349,-0.014802061,-0.09813241,-0.23430413,-0.18580942,0.34248284,-0.2561653,-0.038974233,0.070100844,0.13590692,-0.22570434,-0.119657084,0.16605794,0.20551439,-0.065686055,0.15626204,0.2180709,-0.11071575,0.18543528,0.031397533,-0.06850703,0.102270894,0.15853752,0.2537617,-0.2849961,0.20117202,0.17159763,-0.026720982,0.030053567,0.06885875,-0.15664871,0.09380164,-0.034741826,-0.31477353,-0.123025864,0.07445432,0.06186237,-0.04293914,0.022908082,-0.06760659,0.201359,-0.19269177,-0.26399085,-0.20191924,0.14100528,-0.10771405,0.10307383,0.33078802,-0.29350218,-0.092483714,0.15403466,-0.18652421,-0.13709544,0.053707987,-0.1988194,0.10547449,0.119802,-0.22246097,0.20213191,-0.18425326,0.08537448,0.16010223,-0.004141838,0.07387839,-0.072232634,0.09318808,-0.29091585,0.07142959,0.1309712,-0.009398493,0.2753525,-0.20002513,0.19616744,-0.20478244,-0.13160978,-0.24999224,0.18155769,-0.07137841,-0.18296818,0.03154375,-0.032756917,-0.18451162,-0.034164526,0.15135314,0.04462196,0.30637977,0.22086518,0.07368614,0.031726304,-0.18584235,-0.06836541,-0.118246295,-0.122755654,-0.011433509,0.17134698,-0.1529015,0.08463278,-0.0940363,-0.0943114,0.088523015,0.10425452,-0.15606414,-0.12103415,-0.040396206,-0.08834772,0.08128165,-0.18242812,-0.16156511,0.08627453,0.18928868,0.015414485,0.12001743,-0.13292617,-0.025822122,0.15654728,0.03469808,-0.14410102,-0.06864883,0.058511753,0.007950274,0.24751288,0.08741761,0.1455531,-0.099157594,-0.046588942,0.099598505,-0.12255547,0.07565376,-0.10687524,0.10425691,0.21890675,0.06429482,-0.007888964,0.07931897,0.09283747,-0.082084574,-0.34422106,0.15109557,0.028301897,0.05343618,0.2867452,0.25357744,0.10808829,-0.23511775,0.034351308,-0.2763818,0.0008399282,-0.06050208,0.1240324,0.146436,0.2349266,-0.061753526,-0.05308737,0.16820468,0.09639712,0.07569883,-0.075331956,0.059539583,-0.17398466,0.11624532,-0.09845225,-0.20837958,-0.23898539,-0.13990092,0.13327691,0.14701818,0.021874497,0.054133043,-0.0023959263,-0.07085331,-0.13084108,0.1086461,-0.084213786,-0.01515459,0.1088814,-0.25517863,-0.088588245,-0.28482163,-0.00829396,0.16680977,0.2974329,-0.11824385,-0.15409842,-0.3092503,-0.104523696,-0.09027736,-0.038368605,-0.090962134,0.20544544,0.28928,0.22841913,0.046140164,0.23444982,0.050343674,0.1506306,-0.20271237,0.122658566,0.045962922,0.23915252,-0.07361466,0.14123787,-0.20128787,0.23015958,0.088606,0.13641047,0.06389703,-0.19386727,-0.14657553,0.15642491,-0.10968895,-0.07811662,-0.010965858,0.20345868,-0.04625341,-0.20043865,0.13275936,0.15587522,-0.15094371,-0.04860898,-0.16123642,-0.08272637,0.09901479,-0.17917429,-0.12252662,-0.027114786,0.18913455,-0.08383794,-0.14058612,-0.20392542,0.111027285,0.03514124,0.29745504,0.2385568,-0.03374173,0.00800661,0.2752769,-0.20181495,-0.12350439,0.12526992,0.106067695,-0.121628515,-0.047617577,0.09752481,-0.16156724,-0.0544224,0.14928748,-0.0876444,-0.011759879,-0.067715205,0.12364424,-0.19419977,0.17855823,-0.005510371,-0.052115366,-0.09366032,0.029773863,-0.03923801,0.206308,0.024495266,-0.15220535,0.084620275,-0.11576779,-0.21541154,-0.2192377,0.28672707,0.29507828,-0.14064261,0.0008823035,-0.11353888,0.16037564
u65736,0.1424928,0.10361434,0.062118202,0.034696426,0.11673223,-0.2187212,-0.19167039,0.21585639,-0.12439114,0.01956357,-0.09544701,-0.11316994,0.18508609,-0.110370934,-0.08273995,-0.15738986,-0.058481257,-0.32193038,-0.24510884,0.13860525,0.3339675,-0.08209092,0.14651532,-0.26156026,-0.022147737,-0.28083754,0.06552097,0.08734354,-0.08558437,0.1897399,0.019039694,-0.16981982,-0.09189908,-0.20834808,-0.037868015,0.036152676,-0.04637988,0.26307678,-0.024205776,-0.12772253,0.14304607,0.15095335,-0.18210205,-0.08434419,0.15928285,-0.15058939,-0.1913021,-0.02905286,-0.14489888,-0.16067068,0.1867927,-0.09587711,0.149011,-0.16115774,0.046314165,-0.13511421,-0.3053906,-0.2402879,0.2425033,0.12566307,-0.10846991,0.050257545,-0.14835614,-0.09944742,-0.1502164,0.17489399,-0.3823887,0.089266725,0.07224049,-0.057091095,0.10525312,-0.08142216,0.07113987,-0.12542452,0.08958326,0.24996349,-0.035238065,-0.15142937,-0.13765079,0.057742212,0.011830724,0.1585989,0.18951863,0.09942362,0.13750876,-0.20850705,0.15831771,0.074164525,0.3101856,-0.1605626,0.06823808,-0.15083714,0.051006284,0.16987221,-0.036957324,-0.11531911,-0.11075149,0.11340818,0.08397407,-0.32838494,0.15114939,0.04623412,-0.14521861,-0.04293049,0.09737932,-0.105513856,0.103719965,0.24639937,-0.14572866,-0.11735143,0.14058082,0.12624963,-0.10373537,-0.036862753,0.14936347,-0.030010339,0.40552816,0.0809109,0.23264816,0.0877859,-0.1468394,-0.09911938,-0.106567495,-0.17406495,-0.08809007,-0.09393599,-0.024400754,-0.11137281,0.15447702,0.17785385,-0.13096017,0.11323648,-0.11926233,-0.25516316,-0.20742878,0.20083064,-0.20592776,0.023680361,-0.08063676,0.13379574,-0.1036763,-0.25953776,0.107303895,0.16062109,-0.12643908,0.29940256,0.22385646,-0.19307424,0.11633723,-0.19156076,0.005392606,0.16438125,0.0077149654,0.20954508,-0.0437601,0.11431942,0.07429945,-0.07113697,0.047008567,0.15239245,-0.0620752,0.1771454,-0.21012318,-0.09923343,-0.14368713,0.1466518,0.107105106,-0.26882914,-0.19794922,-0.110086344,0.1616146,-0.19853006,-0.03764521,-0.075437345,-0.027422562,-0.093945496,0.14411002,0.07471133,-0.17360714,-0.1090203,0.15421811,-0.27452648,-0.14733341,0.1064859,-0.21528468,0.12151577,0.1606496,-0.21270445,0.09475857,-0.092543356,0.29631692,0.13937494,0.017917791,0.050060038,-0.23375368,0.19886498,-0.23072134,0.21511059,0.07551813,-0.1259713,0.17577243,-0.14050959,0.031524632,-0.24797106,-0.08297341,-0.26289698,0.13500269,-0.12283702,-0.24197769,0.19081149,-0.04094412,-0.06935859,0.195713,0.2982311,0.13615021,0.12245019,0.1058005,0.1437273,0.15857781,-0.25877875,-0.051885106,-0.11694957,-0.13780123,0.25225186,0.14243247,-0.102854885,0.19248384,-0.0180408,-0.090663955,0.07693736,0.16680121,-0.20216447,-0.13683663,-0.18041413,0.1107193,0.038687553,0.068327114,-0.06298555,0.04096213,0.14448433,-0.23044686,0.10335771,-0.12443013,-0.12772916,0.10272089,-0.27921703,-0.2093242,-0.22266841,0.25466844,0.093297884,0.12219067,0.09636054,0.09151597,-0.1454732,-0.1631583,0.16342048,-0.040755965,0.13666989,-0.03293846,0.18306318,0.10476798,0.2574139,-0.075401016,0.16235489,-0.016775247,-0.12670039,-0.054480582,0.13199803,-0.021639002,0.17096788,0.25241578,0.024691742,0.19987659,-0.242105,-0.29352537,-0.02542045,0.015839208,-0.0069125583,-0.0031354357,0.11028089,0.12573063,-0.027400393,-0.13799536,0.14093594,0.15739547,-0.05422385,-0.012471504,0.24825165,-0.031734504,0.01167105,-0.1493498,-0.08100147,-0.005104982,-0.09926155,0.05050128,0.110838465,0.03681221,0.12599066,-0.15173836,-0.02545191,-0.24881442,0.1744941,-0.18665548,-0.16990632,0.026457954,-0.39100334,-0.14942576,0.13947996,0.102321245,0.19482908,0.27315283,-0.16943054,-0.14661191,-0.041016776,-0.14928037,-0.17179084,-0.059709646,-0.13098058,0.041326072,0.11451013,0.084019095,0.11158393,0.14180696,0.13520071,0.24993931,-0.094555184,0.090450905,0.1681823,0.1450499,0.26327553,0.2937183,-0.22705051,0.16570567,0.04652193,0.1721886,0.18039374,-0.060354687,-0.08815268,0.104690395,-0.06307501,0.0618452,0.07110444,0.083174095,0.124560215,-0.11878396,0.08585772,0.12926692,-0.1429288,-0.13255672,-0.06340809,-0.19408287,0.21364953,-0.22192042,-0.09530392,-0.17799522,0.0019496297,-0.046998564,-0.21103321,-0.15953887,0.05885015,-0.23100707,0.13499855,0.10004298,-0.12027362,-0.0786959,0.1590988,-0.1359114,0.0096853515,0.08212074,0.22127621,-0.16803147,-0.20848964,0.192794,0.021435158,-0.07082097,0.15983242,-0.15947887,0.09033909,-0.15059753,0.27300718,-0.18448918,0.111759365,0.1776206,0.023489159,-0.18409938,-0.082233295,-0.092878945,0.11188181,-0.05061849,-0.11458391,-0.056475792,-0.08291,-0.100425996,-0.30561018,0.10305365,0.111692116,-0.15184042,0.1637252,-0.13449425,-0.09092495
sozm8t,0.048573054,0.15833032,0.12390956,-0.24947429,0.13875793,-0.0960636,-0.13607012,0.20756422,-0.21871047,0.22626215,-0.06630432,-0.16021273,-0.006695366,0.017928997,-0.13031699,-0.038911883,-0.12074609,-0.15106504,-0.16193078,0.1871683,0.18232198,-0.19340265,0.1319285,-0.094918974,-0.08606142,-0.17164737,0.05197736,0.12535892,-0.052265752,0.029935254,-0.19904722,-0.1348443,-0.04277286,-0.10016029,0.008484882,0.095492885,0.08185105,0.07118989,-0.2009094,-0.03478546,0.15509205,0.02800806,-0.11731699,-0.14689057,-0.010132081,-0.15391599,-0.165344,-0.11246852,-0.021696823,-0.17702621,0.116694026,-0.17034003,0.15471067,-0.14493413,0.06292077,-0.09582773,-0.11918203,-0.17022173,0.10268871,0.015101972,-0.09749226,0.17393295,0.0083622085,-0.026841993,-0.14738016,0.02853121,-0.03204037,0.12427611,0.16010346,-0.168077,0.16798253,-0.1481151,0.062838815,-0.13988987,-0.015919203,0.118436724,-0.28469503,-0.1775537,-0.20326199,0.11525382,0.11963832,0.13248287,0.07296568,-0.15226579,0.1773212,-0.07087059,0.19333081,0.17512412,0.19366176,-0.09021526,0.14129059,-0.183031,0.03390976,0.23626819,-0.17849848,-0.22990184,-0.0748738,0.14161861,0.12498333,0.01812151,0.23787282,0.002210325,-0.0964225,-0.046218235,0.19302727,-0.151985,0.07427421,0.25800416,-0.07238591,-0.18368515,0.16600578,0.21427067,-0.030047137,-0.13617389,0.17026211,0.20761327,0.10990586,0.12967767,0.0811456,-0.06261167,-0.10816879,-0.06829357,-0.053223383,0.0515426,-0.078745686,-0.101967596,-0.13928622,-0.16736665,0.002179968,0.1441975,-0.14471921,0.18824975,-0.041259415,-0.22637585,-0.06631422,-0.030931003,0.08333568,0.14890298,0.15517747,0.13139012,-0.10535872,-0.20342971,0.07929686,-0.10683936,-0.19809051,0.06768419,0.1342097,-0.08535944,0.16400917,-0.055466443,-0.11141314,0.15604605,0.1676852,0.11816381,-0.21240583,0.04530187,0.034975223,-0.1436793,0.11982868,0.17845051,-0.10231766,0.07130871,-0.29666603,-0.13487189,-0.21889842,0.11615292,0.10683552,-0.09304411,-0.17373134,-0.1465374,0.050682258,-0.12848526,-0.10701279,-0.16853721,0.1968876,-0.16374815,0.19051275,-0.06216569,-0.20797287,-0.054817706,0.11934072,-0.115483224,-0.16321215,0.13121456,-0.1557642,0.19629829,0.077767745,-0.15608643,0.13173947,-0.1970525,0.13230532,0.061211366,0.21280871,0.01258037,-0.093877554,0.24971344,-0.15410534,0.15213062,0.20848945,-0.2136375,0.09252758,-0.14061429,0.12479406,-0.058920115,-0.1093389,-0.10641364,0.05912024,-0.19780503,-0.087643035,0.20629132,-0.077183455,-0.15156601,0.20951384,0.2679821,0.25974855,-0.006852939,0.17162973,-0.00665959,0.15014288,-0.07896492,-0.18675554,-0.1416159,-0.03404284,0.12175071,0.19964655,-0.21469738,0.10038275,-0.2076325,-0.17727216,0.03852058,0.12566651,-0.18380192,-0.19995137,-0.0608733,0.30280906,0.1966272,0.17099953,-0.10013531,0.14728841,0.09093486,-0.014656283,0.10886024,-0.068317644,-0.035783023,0.0404482,-0.11847379,-0.12937011,-0.09269274,0.18591788,0.26766855,0.04078665,0.09731218,0.07103392,-0.15300915,-0.19557145,0.10388865,-0.037431434,0.1275176,-0.15511361,0.15586278,0.1838667,0.108091615,-0.16362436,0.13749616,-0.27647704,-0.06938339,-0.1374132,0.09233364,0.14687318,0.11017338,0.26080865,0.25501254,0.10506873,-0.1571768,-0.22036076,-0.16231059,-0.14305373,0.012891768,0.046578445,0.14977767,0.06338676,0.23733844,-0.06184902,0.055761635,0.16302282,0.1076038,-0.16236615,0.03969933,-0.06619652,0.06028977,0.0067819287,-0.1101269,-0.11364303,-0.15651894,0.1524374,0.13049585,-0.125611,0.114856735,-0.35394594,-0.1580267,-0.091057956,0.18101896,-0.06848783,-0.10574387,0.07728784,-0.049583063,-0.15855771,0.017046649,0.008107244,0.12467987,0.21778291,-0.16501129,-0.1771399,-0.19268711,-0.15384379,-0.15355347,-0.23736937,-0.17739654,0.07158165,0.0037650447,0.17581278,0.23118906,0.15736604,0.08897813,0.105187446,-0.17904024,0.18776268,0.12416685,0.21024327,0.010440404,0.008529775,-0.03741918,0.18344146,0.19724588,0.1712006,0.13887803,-0.15361671,-0.08314513,0.11136024,-0.12916529,-0.09225298,0.12073698,0.09652606,0.15240437,-0.20664567,0.15378036,0.12204494,0.009458724,-0.060204413,-0.21498336,-0.1913636,0.121658,-0.1747652,0.009849147,-0.03636077,0.18035251,0.036536317,-0.1604556,0.070436694,0.13456897,-0.28376177,0.15119185,0.2746079,-0.21810256,-0.22457424,0.07314295,0.056280635,-0.128738,-0.010215683,0.21602245,-0.1463209,-0.23922454,0.23576605,-0.24424082,-0.16158925,0.11704173,-0.13924874,0.082044244,-0.05225662,0.15221138,-0.009546863,0.06301994,0.07119947,0.019980846,-0.26177302,-0.206261,-0.11787637,0.20023338,-0.036969915,-0.23747872,-0.34342706,-0.02577937,-0.07824915,-0.16605666,0.13538322,0.13390714,-0.13077573,0.17853598,-0.052112248,-0.023555906
09ey1n,0.04204791,0.06517732,0.17805983,-0.07840743,0.19789846,-0.15768868,-0.018856518,0.18094374,-0.097684644,0.09100137,0.023176685,-0.16736378,0.098876104,-0.18919908,-0.15744947,-0.19364557,-0.16111083,-0.19646594,-0.21804148,0.110018894,0.24985996,-0.1388253,0.18006007,-0.18349011,-0.03524848,-0.111281395,0.17119634,0.26369658,-0.04796933,0.17981388,0.011978544,-0.18039122,-0.20569728,-0.012649428,0.07025785,0.132645,-0.080242015,0.08675109,-0.04059817,-0.069116704,0.19782823,0.16087502,-0.23361653,-0.16975808,0.04678659,-0.13664082,-0.12007787,-0.116155505,-0.17945844,-0.077830166,0.19595738,-0.13261427,0.15901126,-0.13958392,0.3325308,-0.14864539,-0.115268335,-0.18699871,0.09631424,0.26940647,-0.094018556,0.054760806,-0.16754152,-0.12264709,-0.025527703,0.10507144,-0.24193153,0.3125311,0.24177445,-0.16504107,0.048590824,-0.11491815,0.17992291,-0.07072616,0.1988786,0.096907996,0.0031366358,-0.09979447,-0.091215596,0.09995466,0.13788746,0.18640193,0.19326608,-0.048200008,0.20525369,-0.15892921,0.16696183,0.07679355,0.04469606,-0.17768069,0.0976088,-0.059943244,0.20053563,0.16446565,-0.061257698,-0.18798533,-0.17078495,0.07876953,0.1351906,-0.119563885,0.067992136,0.21119656,-0.071111515,-0.14993852,0.052679,-0.15514116,0.12662126,0.18882404,-0.031369258,-0.12752438,0.13220276,0.20073053,-0.13594168,-0.13164553,0.20501222,0.11745144,0.17224586,0.14675058,0.11436256,-0.123077475,-0.115065806,-0.0010552017,-0.085072294,-0.10692954,-0.006245464,-0.10090075,-0.07204074,0.05137293,0.11876863,0.1382574,-0.08469836,0.21234055,-0.11573843,-0.34695292,-0.1069351,0.15001328,-0.15732047,0.30259523,0.014093391,0.15479402,-0.06502823,-0.086567186,0.15893129,0.2459554,-0.15738791,0.22724229,0.21914507,-0.19493821,0.038226172,-0.13136744,-0.08049432,0.036560707,0.23922424,0.0804295,-0.15986529,0.271354,0.17345868,-0.14639805,0.17556061,0.06795043,0.011253303,0.09559749,-0.0900675,-0.11606452,-0.2518502,0.0857157,0.13629512,-0.16729322,-0.22749037,-0.23044053,0.18190211,-0.096799865,-0.023544487,-0.2068605,0.19408965,-0.04100275,0.032607477,0.10590749,-0.05776803,-0.1314945,0.13118109,-0.1053725,-0.0638746,0.12182589,-0.13122483,0.04990259,0.18370509,-0.08671092,-0.08881323,0.08632505,0.27098364,0.069352046,0.16413303,0.16017318,-0.36741608,0.24449614,-0.26384836,0.19627301,0.104388095,-0.1003456,0.2709482,-0.110276565,0.11460866,-0.17811166,-0.1503902,-0.014899011,0.20561734,-0.15438318,-0.19158141,0.015198316,-0.20746978,-0.26379254,0.08965816,0.13823265,0.10597571,0.056694098,0.07512603,0.1448839,0.27754408,-0.22481197,0.014325139,-0.03147669,-0.1329792,0.17855303,0.08438973,-0.06436041,0.093085885,-0.07851194,-0.23373486,0.07142588,0.11912341,-0.18172224,0.0038566461,-0.06754944,0.30548766,0.1396362,0.100215636,-0.015946891,0.06383026,0.15873897,-0.3070467,0.13408536,-0.10692924,-0.10484001,0.17300998,-0.2267164,-0.042946916,-0.1914722,0.13752021,0.076376304,0.20221867,0.094319984,0.028821155,-0.08681648,-0.18476012,0.20139807,-0.009569145,0.123616464,-0.19748516,0.07728527,0.20431308,0.16009878,-0.02047495,0.18367599,-0.06792129,-0.14044347,0.013605637,0.1511537,0.08039157,0.28618482,0.2668305,0.21435711,0.1949067,-0.12986124,-0.20492375,0.0023026934,0.06305916,-0.18487717,0.21696275,0.13402283,0.08791571,0.1348337,-0.22785535,0.14514221,0.29987752,0.22045791,-0.14553918,0.113656886,-0.08900716,0.106764674,-0.22718503,-0.087381355,-0.19145718,-0.1585206,0.07227762,-0.008983577,-0.08687347,0.073465325,0.003978089,0.068593085,-0.07091148,0.1747637,-0.18244024,-0.2022089,0.21575288,-0.17192811,-0.19061853,-0.12102931,0.015317947,0.15566409,0.08579124,-0.035070755,-0.023263019,-0.032240275,0.032700192,-0.08927949,-0.0024381345,-0.109861314,0.049866952,-0.0810507,0.07425483,0.018163176,0.15018962,0.019223215,0.32478595,-0.10472095,0.20247036,0.12976739,0.055753704,-0.0050654714,0.18115105,-0.13640492,0.07230932,0.23261702,0.13706769,0.09901061,-0.036464322,-0.119173884,0.023167001,0.009256283,-0.013460359,0.12782766,0.05969995,0.1469233,-0.09015914,0.08596644,0.21133961,-0.05782858,-0.22988394,-0.16331564,-0.12305892,0.088689946,-0.25438687,-0.07202303,-0.24035923,-0.03858564,-0.16637275,-0.32915527,-0.13659362,0.07340649,-0.08905782,0.034291714,0.14038795,-0.09952652,-0.15774573,0.14335702,-0.05537312,-0.25115547,-0.042945083,0.038990993,-0.13119404,-0.12179058,0.2060329,-0.1701516,-0.0045187534,0.042229038,-0.19266598,0.16590099,-0.27281478,0.09278077,-0.16928712,0.02974159,0.23716089,-0.07443249,-0.12784557,-0.1355429,0.033552773,0.017924566,-0.17699528,-0.10586497,-0.12470581,-0.16434865,-0.04154789,-0.1298695,0.18971267,0.11790812,-0.07508579,0.19267881,-0.25350332,0.17819802
6n456m,0.24964301,0.32696554,0.16853382,-0.14464109,0.19810899,0.034177937,0.036163617,0.16159603,-0.17862464,0.1734178,-0.06335759,-0.15530875,0.1651899,-0.102204554,-0.12446728,-0.30200577,-0.21503538,-0.12904796,-0.1748634,0.1823059,0.13602668,-0.02632526,0.10087878,-0.110603735,-0.1815258,-0.06398093,0.19539744,0.12780191,-0.20592825,-0.06879058,-0.06370309,-0.14977883,-0.15694922,-0.29918656,0.061306138,0.06471449,-0.09983945,0.0702141,-0.10258536,-0.16841486,0.12456522,0.17284773,-0.12590773,-0.11045485,0.10527816,-0.17814822,-0.19705153,-0.15389271,0.03858041,-0.13206092,0.18656269,-0.11395602,0.12524849,-0.059565593,0.24024329,-0.08556329,-0.056358706,-0.058434024,0.21607517,0.2635771,-0.17598544,-0.1043128,-0.24935362,-0.151999,-0.021269549,0.16938001,-0.114411816,0.11313878,0.2182379,-0.19239587,-0.0412837,0.015644675,0.02531542,-0.090797774,0.2903746,0.1315338,-0.19864526,-0.085292876,-0.04051098,0.15080418,0.1852839,0.060934942,0.23114236,-0.115127265,0.19266449,-0.07094359,-0.011634942,0.08023882,0.12338256,-0.15414308,0.20499389,-0.046886783,0.23003964,0.14449233,-0.25874278,-0.11297223,-0.09706977,0.08200141,0.090017326,-0.15081847,0.082986966,0.1603857,-0.0394464,-0.32855034,0.09082773,-0.13262917,0.12605134,0.13221791,-0.13160574,-0.038577985,0.07537496,0.122206464,-0.24531732,-0.047027253,0.052263852,0.08363719,0.06947634,0.11937031,0.20506287,-0.12219557,-0.107268244,-0.031504806,-0.080466814,-0.086809784,-0.23510359,-0.114115156,-0.1624982,-0.13564533,0.22954106,0.13842337,-0.19625306,0.06386027,-0.1496169,-0.16739604,-0.05231308,0.1623917,-0.051610366,0.11030258,0.035710923,0.09720974,-0.19464342,-0.0942222,0.07920609,0.15434667,-0.15659802,0.07852481,-0.020948486,-0.17117302,0.12996672,-0.16077465,-0.19316489,0.18481465,0.1079378,0.12125197,-0.12926306,0.09830076,0.16404535,-0.085889325,0.20882428,-0.010654573,-0.13340588,0.13502195,-0.13498072,-0.11096451,-0.30890656,0.19052376,0.09535286,-0.056677107,-0.15390027,-0.21655881,0.14114581,-0.11121226,-0.15885024,-0.12473935,0.13161539,-0.10668064,0.106825605,0.15615347,-0.13562734,-0.124508515,0.33501595,-0.039278705,-0.18909392,0.027020391,-0.13600646,0.10216344,0.06836458,0.091291174,0.078966126,-0.11311587,0.09654968,0.12117515,0.117200635,0.15536061,-0.03950097,0.18434314,-0.19920337,0.07973197,0.21759385,-0.17802323,0.13917942,-0.07191435,0.11537435,-0.16571309,-0.2001214,-0.11143246,0.2438557,-0.21364541,-0.15875596,0.1656733,-0.20859404,-0.25367385,0.19298084,0.11975868,0.2040201,0.18527114,0.08300603,0.13225879,0.14482497,-0.11841189,-0.14182933,-0.10541452,-0.2954799,0.18708155,-9.118828e-05,-0.0672889,0.07592787,-0.16521713,-0.19406222,0.25594875,0.13033602,-0.15476537,-0.0636076,-0.070793785,0.169908,-0.038337924,0.1115547,-0.16432157,0.17044371,0.116492294,-0.098460786,0.08707218,-0.09785798,-0.11476484,0.054360244,-0.07862725,-0.070760064,-0.06861507,0.048797503,0.21977982,0.20986278,0.22980578,0.13852447,-0.24513687,-0.01969155,0.28731525,-0.10364387,0.26794377,-0.08855013,0.1516311,0.10321216,-0.09198054,-0.2542555,0.18397562,-0.1403105,-0.2674179,-0.087643795,0.09823139,0.20288797,0.16648553,0.11989448,-0.028482782,0.14150816,-0.0023961843,-0.17241602,-0.08675839,-0.14794354,-0.1744175,0.17034021,0.12759109,0.11024895,0.10712871,-0.108282216,0.16797468,0.16824268,0.087388545,-0.12903374,0.19195226,-0.29578587,0.08855305,-0.09509131,-0.16041407,-0.13488145,-0.16083448,0.19907632,0.16728891,-0.18712895,0.033679277,-0.12848876,-0.24390247,-0.15633236,0.052515212,-0.17216818,-0.20444323,0.05793154,-0.054505255,-0.049002707,-0.18355805,0.18823011,0.079451814,0.109794416,-0.16930068,-0.16944942,-0.100051925,-0.068613775,-0.16127361,-0.13621736,-0.11311544,0.1846821,0.16718008,0.1467647,0.08952901,0.09953302,0.15124755,0.13764748,-0.11335735,0.14026582,0.14841604,0.03441475,0.16871136,0.13841501,-0.098117925,0.12009451,0.18536612,0.13630038,0.10813567,-0.06414572,-0.16145673,0.019064853,-0.10553961,-0.12900405,-0.012200141,0.05038664,0.19894291,-0.10683934,0.14760116,-0.09366569,-0.28701696,-0.21746287,-0.06257802,0.046273887,0.1959406,-0.17460358,-0.16728789,-0.31126,0.023411725,-0.06914087,-0.17136061,-0.06491509,0.2301868,-0.014582773,-0.10923804,0.01988478,-0.039042063,-0.08284745,0.103632584,-0.17433146,-0.17439935,0.1551695,0.06588979,-0.12466731,-0.097460486,0.047864173,-0.1513765,-0.095560424,0.13041535,-0.14286393,0.26968676,-0.21794605,0.03050957,-0.084241696,-0.010140695,0.08764678,-0.2235299,-0.1149086,-0.039055016,-0.285974,0.122764215,-0.20119895,-0.14549254,0.1076262,-0.19077271,-0.030380968,-0.1173083,0.08203231,-0.01782619,-0.110259525,0.28490436,-0.10332709,0.08759306
4hutyt,0.37168688,0.14855689,0.13650694,-0.07334589,0.2389293,-0.1073984,-0.14860664,0.08646283,-0.0037508488,0.11765553,0.011502265,-0.134274,0.22331811,-0.031111987,-0.07811876,-0.032101497,-0.012256188,-0.12066829,-0.2639864,0.07866488,0.07658725,-0.10771278,0.106280126,-0.19297762,-0.15430269,-0.04836597,0.0862613,0.15680875,-0.04132737,0.26831886,-0.16928472,-0.22197385,-0.15491986,-0.27525008,0.052172948,0.20569105,-0.12887186,0.078692324,-0.22025442,-0.21778515,0.21539822,0.100133926,-0.15773697,-0.047003828,0.032417532,-0.03217564,-0.08905055,-0.20876916,-0.13731231,-0.1505726,0.1259558,-0.21539177,0.118271075,-0.20754501,-0.10463662,-0.16433638,-0.2479842,-0.13548861,0.061692197,0.15449096,-0.23382308,0.0641343,-0.12369208,-0.15624878,-0.16088013,0.31111157,-0.11441373,0.01647185,0.0017861888,-0.11823069,0.25614035,0.05804482,-0.010217597,-0.17534846,0.23588337,0.08551348,-0.135486,-0.10258221,-0.1457995,0.20178698,0.134557,-0.0028107283,0.15621924,-0.07824897,0.11388806,-0.075489126,-0.03845765,0.123057425,0.15821755,-0.20107567,0.17765513,-0.06873347,0.20707664,0.11201231,-0.12503369,-0.23278293,-0.041983105,0.16357847,0.26561162,-0.06125485,0.1177652,0.1038362,-0.31370527,-0.32060057,0.06055089,-0.16267462,0.18011227,0.11663367,-0.19859979,-0.15758978,0.07983187,0.19187503,-0.28938425,-0.11224262,0.17234269,0.08988019,-0.05605064,0.17826812,0.10822862,-0.08637388,-0.052808348,-0.08678351,-0.051774994,-0.10460125,-0.27713782,-0.0021420224,-0.06062981,-0.17071573,0.2737248,0.16858692,-0.02803418,0.18563929,-0.15682764,-0.15432678,-0.15850514,0.11530468,-0.23703207,0.06949904,0.10821454,0.12626873,-0.13525976,-0.06816978,0.07062852,0.189664,-0.21091932,0.1130716,0.22654063,-0.18190418,0.16041428,-0.033165347,0.07921471,0.13290657,0.14362283,0.042847168,-0.08989516,0.059822265,0.178817,-0.09821264,0.12202155,0.21238296,-0.1069622,0.16529673,-0.15909575,-0.05916497,-0.16966139,0.07519461,0.15267804,-0.14964788,-0.14392386,-0.03967875,0.0015413456,-0.15828189,-0.10796022,-0.095325924,0.020946482,-0.15750593,0.19049968,0.07314872,-0.20278986,-0.1900262,0.13708535,-0.1514334,-0.0726331,0.21802042,-0.19144121,0.189594,-0.019164106,-0.11232174,0.10551394,-0.22071356,0.109647214,0.25709888,0.14066026,0.17339826,-0.08801363,0.09594578,-0.046429243,0.059434537,0.105205394,-0.06502227,0.14468431,-0.21199842,0.07184048,-0.15902022,-0.1500066,-0.29944107,0.11489633,-0.20716563,-0.17002355,0.21531811,-0.10873782,-0.24286237,0.038806595,0.2972467,0.2004566,0.19239415,0.18754141,0.3004046,0.10106371,-0.068511456,-0.12812412,-0.09616427,-0.22949257,0.21443152,0.00840876,-0.100197114,0.063904315,-0.06279869,-0.20247251,0.1942504,0.16543266,-0.09080556,-0.13286714,-0.24809021,0.06804803,0.007048203,0.1110789,-0.1567024,0.092100464,0.15796587,-0.15020911,0.19520512,-0.0746748,-0.14151253,0.09103897,-0.107015796,-0.17299214,-0.13026452,0.16059017,0.083599426,0.015256958,0.28979206,0.2976283,-0.11968792,0.020202136,0.14195985,-0.1910043,0.15444064,-0.071947165,0.1458324,0.019161751,0.10712576,-0.23972227,0.046643626,0.010000031,-0.15291508,-0.088480555,0.14933932,-0.059194606,0.08859555,0.06772597,0.03796816,0.2449495,-0.085383065,-0.25206414,-0.10966809,-0.08176994,-0.07454018,0.1876967,0.13128869,0.1229475,-0.016837547,-0.10525273,0.053488024,0.055132143,0.10239228,-0.057131693,0.29997948,-0.17842278,0.22235611,-0.15576401,-0.12319142,-0.009023314,0.013268942,0.2599184,0.06537762,-0.17062049,0.16795614,-0.15878133,-0.22304279,-0.13332643,-0.11702193,-0.12973097,-0.18383832,0.07999755,-0.25907174,-0.1584008,-0.108073935,0.098975495,0.04527562,0.21643494,-0.078368105,-0.14300255,-0.1755847,-0.3137019,-0.15140092,-0.29945844,-0.082895875,0.2247487,0.009678007,0.250693,0.03698185,0.07266148,0.23965283,0.16460732,0.016572574,0.13928874,0.16944955,0.016080486,0.122606225,0.011252607,-0.03703866,0.118095,0.21856873,0.10706256,0.103851765,-0.17105198,-0.08972595,0.10041608,0.022180775,-0.13577059,0.08288815,0.14193451,0.0786246,-0.112313315,0.12434255,0.16311425,-0.2664505,-0.12512718,-0.17369941,-0.2300027,0.014056823,0.02983565,-0.22925587,-0.005495347,0.14386012,-0.10555307,-0.21122833,-0.021837423,0.05893195,-0.15037976,0.13198428,0.08672753,-0.015425513,-0.038433407,0.10288731,-0.19421989,-0.1050016,0.20659535,0.2583053,-0.08731478,-0.22016236,0.16648743,-0.12729737,-0.18620126,0.23128642,-0.07519985,0.26843128,-0.12576792,0.043920234,-0.1676277,0.13692614,0.065479666,-0.03351151,-0.26081142,-0.14008898,-0.24312887,0.0565147,-0.011109233,-0.20018452,0.14868464,-0.17057432,-0.13413352,-0.22333185,0.13868703,0.13933255,-0.12813993,0.13568854,-0.07333848,0.08695133
kvxujq,0.12551996,0.14731376,0.20998985,-0.11740019,0.03516243,0.03704531,-0.26645267,0.033726305,-0.047145724,0.104569994,-0.08668208,-0.10893,0.24508572,-0.15636483,-0.1256804,-0.15914075,-0.21288796,-0.2460614,-0.21004596,0.17532349,0.21989168,-0.14167495,0.21271601,-0.055529416,-0.105640665,-0.15072794,0.20707025,0.032464847,-0.07577832,0.122934334,-0.190122,-0.12031873,-0.1715816,-0.13316302,0.103040874,0.068410315,-0.06373023,0.05497656,0.011305807,-0.09491407,0.17924742,0.16749923,-0.26275685,-0.14015736,0.20666692,-0.19313125,-0.1460007,-0.21860464,-0.31394336,-0.11441829,0.1824727,-0.048773218,0.18511336,-0.09562791,0.13214554,-0.22059925,-0.22178304,-0.124285646,0.20967509,0.2175928,-0.21808998,0.087744445,-0.072829835,-0.11310864,-0.09769643,0.09946487,-0.18303183,0.014264104,0.0943635,-0.03456176,0.16026023,-0.10121428,0.042045593,-0.13997716,0.19816643,0.08956316,-0.25047913,-0.11016739,-0.009497386,0.17081657,0.13984717,0.07408557,-0.024857996,-0.062397957,0.14194266,-0.1278589,0.0338427,0.114710584,0.12687384,-0.01598119,0.12311966,-0.07973095,0.1863283,0.13233884,-0.019511199,-0.2524866,-0.14742991,0.05158255,0.008633438,-0.11003974,0.123032674,0.0633141,-0.095615536,-0.25344485,0.06290101,-0.14425278,0.1490678,0.15270875,-0.18154821,-0.05938933,0.08974366,0.1824978,-0.15752739,-0.18475652,0.21540977,0.19822666,-0.026587065,0.1947632,0.097171254,-0.15693942,-0.2407074,-0.074262045,-0.23280199,-0.18924713,-0.073146164,-0.12891579,-0.14901917,-0.065040976,0.33026087,0.05482421,-0.061057687,0.021280034,-0.14948262,-0.19395949,-0.1520493,0.028351717,-0.14587225,0.109684855,0.1416529,0.15515524,-0.3572317,-0.08687216,0.082211465,0.1775034,-0.09581532,0.22443199,0.12441478,-0.11970666,-0.055448513,-0.137631,-0.10027206,0.13546489,0.13889073,0.17996395,0.008230239,0.20892373,0.11864119,-0.22671314,0.21418844,0.08384115,0.08386507,0.116701834,-0.13794829,-0.038862392,-0.15659913,0.05834088,0.057320993,-0.124219306,-0.11924882,-0.11001517,0.10716058,-0.16658536,-0.04804131,-0.13163888,0.15371618,-0.02608942,0.21581915,0.1284115,-0.0796282,-0.31368697,0.21758142,-0.11985817,-0.1053308,0.00640702,-0.13859819,0.0358628,0.21449395,-0.007861772,0.040656425,-0.082857214,0.11341741,0.022564963,0.17520864,0.17225492,-0.19883092,0.044727787,-0.049224883,0.090129994,0.028339459,-0.07101795,0.2403867,-0.09082161,0.22743021,-0.16577156,-0.21864799,-0.07508346,0.14124165,-0.19779816,-0.1533764,0.12596214,-0.2320733,-0.16729864,0.14930369,0.07751044,0.2035718,0.19795588,0.12098513,0.16890408,0.12831384,-0.04421195,-0.18752237,-0.08962343,-0.0908832,0.19699354,0.06927513,-0.21924947,0.1725811,-0.1480368,-0.12478791,0.27406758,0.06549289,-0.15441878,-0.07547114,-0.17008685,0.13286828,0.06392737,0.2984173,-0.13100094,0.0961633,0.16612135,-0.2574259,0.22900397,-0.201158,-0.091447875,0.08955047,-0.17255501,-0.051809113,-0.15199052,0.1812054,0.14835279,0.2298627,0.20699915,0.14595853,-0.14145944,-0.104560204,0.19372061,-0.074637026,0.10307278,-0.055325385,0.117844224,0.13685937,0.07752553,-0.11231949,0.15554735,-0.034515787,-0.06501409,-0.07871347,0.15443473,0.13204478,-0.023898637,0.09051992,0.010978808,0.10528222,-0.13068023,-0.11245284,-0.12441114,-0.055799037,-0.351135,0.28817412,0.09891028,0.026337212,0.022897817,-0.14237319,0.27400208,0.2567003,0.038344916,-0.052648064,0.20159285,-0.26335704,0.19765289,-0.095274955,-0.077610746,-0.14110276,-0.074032664,0.116749555,0.1223367,-0.31138733,0.008006232,-0.02813068,-0.21020913,-0.06044618,0.020634314,-0.1838504,-0.18055868,0.16203518,-0.21552403,-0.16322929,-0.050593782,0.038520694,0.117504954,0.09328345,0.04163832,-0.13521849,0.044316296,-0.075343154,-0.07616167,-0.14131896,-0.22131287,0.16340165,0.15128203,0.1613336,0.1700169,0.15929523,0.17101319,0.2896287,-0.1372021,0.18894748,0.15087943,0.047086302,0.10452049,0.13904925,-0.05669065,0.15575671,0.23576371,0.18424381,0.060219977,-0.06990151,-0.2533346,0.23366088,-0.03737116,-0.07044397,0.10314973,-0.050274692,0.096823946,-0.06896843,0.14444235,0.12304812,-0.1203323,-0.1728878,-0.12162451,-0.058190785,0.107491486,0.086279064,-0.113770604,-0.19231622,0.09157352,-0.18994053,-0.20193578,-0.15432249,0.11259035,-0.043041743,0.19529843,0.030529587,-0.06458077,-0.013819156,0.30254763,-0.32073048,-0.16919912,0.08675843,0.116150655,-0.10974148,-0.05015445,0.12287721,-0.18076599,-0.07237937,0.052609637,-0.13088946,0.22751196,-0.17817499,0.065895885,-0.17131247,0.15333776,0.08417907,-0.14639738,-0.14898632,-0.24873614,-0.072333805,0.029008625,-0.14964284,-0.12121747,-0.027615441,-0.15464097,-0.16425194,-0.056213345,0.04098766,0.18175447,-0.13263291,0.2613538,-0.2958955,0.1556276
zv68br,0.04364053,0.16100734,0.2092454,-0.045467794,0.24297082,-0.20803484,-0.16747706,0.033164885,-0.1889263,0.24743032,-0.2565794,-0.24845785,0.07243617,-0.25853205,-0.06457184,-0.046072472,-0.14418125,-0.090005524,-0.09959317,0.14930525,0.20953694,-0.16197856,0.14846158,-0.10135318,-0.11277659,-0.05443625,0.07475559,0.20752676,-0.0825038,0.13281539,-0.2436011,-0.17107122,-0.10518493,-0.092230745,0.072601624,0.21340755,-0.21534322,0.1110877,-0.19289759,-0.06650949,0.13536583,-0.0047247545,-0.15268949,-0.06833724,0.10457813,-0.25325605,-0.00702458,-0.0090201935,-0.24168788,-0.011861121,0.1637353,-0.09675861,0.090336196,-0.21458925,0.26509812,-0.1266848,-0.13127293,-0.11880884,0.047172602,0.2011321,-0.18920316,0.109850176,-0.18828742,-0.21701838,-0.078394935,0.019199554,-0.1731671,0.04831609,0.2866226,-0.055555906,0.05519714,-0.24520555,0.1710109,-0.1178062,0.29186714,0.11385445,-0.18845326,-0.12062632,-0.14542699,0.08891008,0.10419863,0.15111592,0.0473815,-0.16457774,0.22217372,-0.056313496,0.099576704,0.14927845,0.16373363,0.015453991,0.14437805,-0.20715562,0.2423132,0.19083425,-0.19140042,-0.21497642,-0.059549678,0.031702567,0.13173975,0.0077491733,0.09060542,0.26753798,-0.035994243,-0.20076632,0.1294001,-0.18548332,0.16624911,0.12996179,-0.12517513,-0.13610554,0.042448927,0.09701105,-0.10910613,-0.10877933,0.11245084,0.28260788,0.027043484,0.108877786,0.08205831,-0.032103222,-0.06002128,-0.042614754,0.031319648,0.030263126,-0.15872492,-0.070184216,-0.22284631,-0.07898887,0.26067272,0.18472265,-0.19230612,0.26173207,-0.16254653,-0.31080464,-0.032551263,0.3030762,-0.14478937,0.16269825,0.19897965,0.07402826,-0.003430826,-0.06219236,0.16936326,0.14650843,-0.13300599,-0.0075638196,0.11421892,-0.18339491,0.17792223,-0.06754326,-0.12004461,0.13728575,0.23401093,0.16820876,-0.24428916,0.22249699,0.13616712,-0.13797419,0.043546222,0.10012749,-0.119607694,0.13738993,-0.07868305,-0.12062422,-0.23843858,0.13126501,0.14449136,-0.1457076,-0.082969025,-0.23427692,0.040253565,-0.0008944215,-0.10271205,-0.22667836,0.1851032,-0.14309596,0.04075674,-0.06597465,-0.11424297,-0.08072343,0.0979713,-0.067466505,-0.06942331,0.04521203,-0.0889075,0.03424782,0.05514245,0.016731167,0.026640639,-0.050199807,0.20603481,0.20617893,0.13551216,0.117044926,-0.115407795,0.15901399,-0.15079807,0.2002759,0.2143229,-0.19386087,0.20150115,-0.14194493,0.13175286,-0.20693904,-0.14123182,-0.06494357,0.036391806,-0.20350584,-0.18635276,0.14508094,-0.2459892,-0.094971344,0.10906149,0.10303211,0.24044073,0.13200417,-0.009271577,0.099141575,0.08775458,-0.06497065,0.023902383,-0.06677801,-0.37185603,0.1754777,0.030088466,-0.086107515,0.14724435,-0.1988808,-0.21790305,0.08698358,0.06463526,-0.17626485,0.055066455,-0.048066564,0.21848185,0.039142407,0.12606497,-0.08201636,0.1596319,0.22356163,-0.132493,0.09211684,-0.064288355,-0.09363306,0.07429319,-0.19950049,-0.09358188,-0.11817944,0.061215624,0.20061608,0.14886603,0.04214776,0.11298573,-0.10421425,-0.15647468,0.09840381,-0.08146376,0.11463522,-0.09646959,0.038559657,0.12077714,0.14691818,-0.14233401,0.1522695,-0.077292964,-0.10544634,-0.12389953,0.21070279,-0.011804559,0.22254035,0.12933034,0.14802417,0.15206967,-0.23672001,-0.24621482,-0.099307485,-0.12537415,-0.11653522,0.054060485,0.15311645,0.08827968,0.1855292,-0.10800194,0.017339079,0.23226422,0.26230446,-0.15293798,0.24484901,-0.1041971,0.19234808,-0.06397017,-0.11800869,-0.23964627,-0.15064415,0.054691665,0.07822888,-0.31512687,-0.04933859,-0.17166445,-0.030183582,-0.04018378,0.0042334516,-0.15297902,-0.17383029,0.19438955,-0.14477459,-0.19449003,-0.16611423,0.068342514,0.12921688,0.18444239,-0.2188007,-0.14278972,-0.11709531,0.06906685,-0.06530547,-0.1905849,-0.0565213,0.10347339,-0.04313026,0.12078525,0.18316878,0.09612257,0.053606696,0.25180784,-0.1234295,0.14585887,0.16189814,-0.0632901,0.054647755,0.028301835,-0.025087534,0.12303116,0.11155243,0.11267477,0.1310882,-0.041430656,-0.08666433,0.2284926,-0.096817255,-0.14828989,0.14674498,0.106604375,0.2964533,-0.21376297,0.11534819,0.05895966,-0.116247185,0.022508465,-0.1450897,-0.30468357,0.16619964,-0.050212618,-0.055662006,-0.2226448,0.14548235,-0.10888015,-0.1547357,0.041795693,0.18315336,-0.106327385,0.002796083,0.08089853,-0.1642867,-0.13314024,0.06267644,-0.13907537,-0.14438753,0.06780344,0.1273725,-0.14117809,-0.1287527,0.16352437,-0.17820208,-0.046584066,0.07285344,-0.14090976,0.14179926,-0.100365035,0.17906639,-0.14548038,-0.028645886,0.26476198,-0.014123924,-0.16667032,-0.13690656,-0.16909873,0.040491793,-0.15711623,-0.052107733,-0.08476429,-0.078606226,0.010518331,-0.18025725,0.13378052,0.104481205,-0.089485094,0.17900534,-0.14567056,0.2058555
mtigwr,0.05570253,0.097796366,0.14780489,-0.08418905,0.09727703,-0.2049327,-0.1961293,0.12721857,-0.28048885,0.21014754,-0.08864642,-0.1505351,-0.07579876,-0.17036225,-0.15036306,-0.05278558,-0.04732492,-0.073121816,-0.13209036,0.15781963,0.14998059,-0.17735496,0.1595063,-0.05228052,-0.21462077,-0.19293994,0.16607021,0.10372624,-0.008343597,0.1645897,-0.115520254,-0.14251842,-0.09437567,-0.10291742,-0.07141982,0.15568699,-0.08921985,-0.0032554641,0.0062627187,-0.006705454,0.08227544,0.040809847,-0.19225536,-0.3189646,0.16964236,-0.15475479,-0.052398548,-0.089503035,-0.04908283,-0.2003934,0.08153155,-0.21750738,0.05478871,-0.2210188,0.13449474,-0.159006,-0.14203507,-0.042817388,0.09887126,0.19641304,-0.283736,0.11698098,-0.050068375,-0.124205045,-0.1273175,0.008766978,-0.16702639,0.24304812,0.18658784,-0.063656054,0.17951626,-0.16992982,0.062577575,-0.12315217,0.21576749,0.013407754,-0.19509551,-0.24158162,-0.19388418,0.09129708,0.0093418015,0.13459264,0.25048274,-0.15958504,0.07804317,-0.15818377,0.30262682,0.121564046,0.039950695,-0.1388942,0.09497168,0.03519819,0.004549379,0.11683072,0.0044589764,-0.19232784,-0.13984652,0.055147983,0.025328066,-0.25348288,0.35870153,0.06210426,-0.06794139,-0.13337722,0.25212234,-0.18706769,0.17670034,0.16040875,-0.07969389,-0.18542771,0.02583812,0.19640155,-0.07487722,-0.19862661,0.0917633,0.11273062,0.0875405,0.13526046,0.06651706,-0.19294852,-0.09970503,-0.22965485,-0.3317808,-0.07770795,-0.14323184,-0.07318018,-0.26581618,-0.21523525,-0.040959764,0.09607313,0.017654082,0.13252038,-0.0762951,-0.16731001,-0.21702546,0.062103733,-0.2547666,0.114465505,0.2111965,0.09965164,-0.09895628,-0.3369631,0.14090651,0.15121005,-0.07021756,0.21426594,0.06985021,-0.1245106,0.19737925,-0.15963523,-0.1139977,0.08360042,0.18771477,0.13204077,-0.011477433,0.16359636,0.09623902,-0.28396255,0.061384708,0.018710822,-0.19138794,0.061550252,-0.05690993,0.0038301602,-0.12500818,0.19911624,0.11620095,-0.049119856,-0.15913494,-0.21727172,0.19609962,-0.023937527,0.022385988,-0.025128603,0.094633214,-0.3565918,0.25643188,0.1525303,-0.031345494,-0.1273162,0.17727928,-0.13654307,-0.2605301,0.09337905,-0.22650212,0.18271224,0.24455872,-0.14061421,0.03224957,-0.2241999,-0.047262754,0.14938903,0.07572001,0.045391828,-0.21309069,0.13130753,-0.026062371,0.17626259,0.01674958,-0.08172626,0.11359442,-0.09111118,0.24501456,-0.21118952,-0.09974804,-0.09049838,0.010359323,-0.09892474,-0.046254605,0.090972535,0.10611436,-0.17975633,0.13801143,0.29482996,0.1897195,0.14193164,0.17811587,0.1842297,0.1399328,-0.07932581,-0.12573183,-0.10639514,-0.028888805,0.055505134,0.109555244,-0.12152847,0.18079583,-0.0034058148,-0.09748557,0.13508292,0.10435836,-0.05857485,-0.19683462,-0.043377824,0.11879743,0.14313811,0.056866564,-0.059823208,0.14657803,0.19555438,-0.038672596,0.1489729,-0.18580286,-0.14284182,0.14152953,-0.06893841,-0.14718767,-0.092623875,0.12812383,0.27453002,0.08122307,0.1778508,0.02163179,-0.09312324,-0.26623222,0.15592569,-0.07270601,0.11063394,-0.106127135,0.08989641,0.09665619,0.25516427,-0.0784662,0.102777466,-0.095394015,-0.094818324,-0.13972925,0.14105408,0.30705455,0.25929418,0.062388383,0.15486147,0.18214375,-0.07777053,-0.008655654,-0.20217195,-0.005838227,0.14560798,-0.05566867,0.16540782,0.23484585,0.2449123,-0.099759884,0.008974845,0.18133785,0.10624354,0.022533383,-0.0013513401,-0.10679283,0.19720395,-0.13898338,-0.06987066,-0.073418416,-0.07423572,0.21334079,0.21186799,-0.33406594,0.14130807,-0.1810502,-0.13894397,-0.00870963,0.27509448,-0.15877666,-0.09831742,0.113407716,0.088397846,-0.21489279,-0.16935033,0.011897487,0.067817464,0.046548083,-0.2070936,-0.07558027,-0.19360618,-0.08514617,-0.08504798,-0.17536178,-0.14702393,0.16433774,0.028497534,-0.0027481578,0.08600429,0.16924484,-0.07140991,0.01824469,-0.23194286,0.036415767,0.0048951358,0.20837177,0.13900921,0.011372223,-0.15883696,0.17917408,0.12370139,0.18861075,-0.021899309,-0.14518611,-0.19274867,0.13203754,-0.17439626,-0.14438681,0.29679513,0.09335431,0.1864667,-0.18348283,0.1667987,0.18772192,-0.07449126,-0.0007093244,-0.23769262,-0.21178982,0.29131293,-0.10094062,-0.0717989,-0.21072395,0.15441252,-0.08749994,-0.08263763,-0.032357667,0.13656075,-0.13480933,0.1993114,0.08206945,-0.19149126,-0.31281674,0.2417781,-0.26859397,-0.14289024,0.14574707,0.054336924,-0.13839605,-0.15939894,0.11781487,-0.23528242,-0.089307174,0.06864368,0.016726311,0.06354147,-0.21485488,0.15211946,-0.123579554,0.0800105,0.1368784,-0.011353052,-0.18911909,-0.15913251,-0.033374712,0.14728819,-0.1572445,0.046958663,-0.13151631,-0.190304,0.120883696,0.021419372,0.02692076,0.11625684,-0.11460259,0.13453023,-0.27541575,0.0458386
e3gpc3,0.083059914,0.14715467,0.05892992,-0.31331167,0.08045213,-0.27588686,-0.10869153,0.23406945,-0.1674919,0.11157879,0.008729927,-0.14599621,0.17453961,-0.1508914,-0.23097096,-0.19451553,-0.039935507,-0.23840806,-0.16046731,0.032463558,0.32644668,-0.112372324,0.09989727,-0.09347532,-0.11824672,-0.23665233,0.20718092,0.115662254,-0.18902993,0.08702473,0.0016956601,-0.06333273,-0.032145668,-0.062264174,0.05370406,0.10206915,0.053432558,0.12215651,-0.039665557,-0.22113922,0.042358167,0.18665974,-0.10439756,-0.10966572,0.1962212,-0.10496608,-0.20473605,-0.3222187,-0.30281815,-0.10734659,0.16137621,-0.19339909,0.19994415,-0.18188022,0.22878979,-0.09414231,-0.06817503,-0.16174823,0.14927408,0.20960139,-0.087024346,0.038454417,0.018330608,-0.1369889,-0.08317171,0.16262569,-0.15739995,0.03400154,0.080394454,-0.0890287,0.17960165,-0.060412828,0.11473788,-0.16762862,0.116917,0.18550158,-0.1314805,-0.15778555,-0.069952585,0.09701858,0.0016924802,0.13711429,0.23468527,-0.2312531,0.06274232,-0.13871504,0.20261824,0.086895645,0.028096348,-0.1505992,0.080243714,-0.24079679,0.17405595,0.0720346,-0.067601405,-0.29161993,-0.194698,0.17643149,0.098892055,-0.13183977,-0.0066400594,0.07640602,-0.015257684,-0.12895586,0.24453227,0.027754024,0.04285096,0.086298846,-0.08447235,-0.10727399,0.15168218,0.21913452,-0.1521447,-0.15339595,0.1635235,0.082580574,0.047511768,0.1965473,0.21199729,-0.09176571,-0.14273389,-0.18462983,-0.16401999,-0.06903752,-0.29151684,-0.08911576,-0.02822578,0.03770336,0.004176395,0.096899465,-0.25351027,-0.00081117166,-0.21344933,-0.22914182,-0.19938445,0.004001312,-0.14474756,0.10458285,0.17576525,0.13033554,-0.15388004,-0.1455998,0.13213423,0.19898559,-0.12463457,0.16331008,0.20080964,-0.02616307,0.08487595,-0.05969501,-0.20310444,0.14254248,0.18123558,0.14652051,-0.14233603,0.0328094,0.083512895,-0.09569384,0.1182734,0.056745328,-0.10054731,0.2102306,-0.18146133,-0.1756478,-0.13943888,0.15031922,0.110075735,-0.07395692,-0.11700568,-0.16254814,0.06214461,-0.076211795,-0.117388695,-0.091322616,0.09362158,-0.16830495,0.15295787,0.10840554,-0.059101246,-0.066044554,0.19076148,-0.28321213,-0.0318041,0.15815529,-0.11377339,0.17697869,0.0019458458,-0.07527226,0.07906527,-0.28802466,0.2271092,0.12845044,0.2519724,0.21180865,-0.27729186,0.06650279,-0.044372838,0.03136683,0.20036374,-0.15166338,0.052026894,-0.054140255,0.08105173,-0.036011662,-0.040000048,-0.12718089,0.25152284,-0.09026983,-0.19346842,0.08466426,-0.07401212,-0.17575301,0.15462607,0.14269371,0.17688265,0.18167043,0.14019135,0.21154547,0.059073277,-0.1841114,-0.22423889,-0.31190142,-0.0038101415,0.1420595,0.1678939,-0.12442262,0.10218692,-0.09993984,-0.090799004,-0.09082053,0.10379203,-0.14672005,-0.15004067,-0.1691687,0.09042699,0.20558032,0.25614825,-0.13900733,0.1868639,-0.004779878,-0.082158,0.06445979,-0.1704636,-0.12517357,0.103999,-0.30726087,-0.17055736,-0.22766499,0.20815173,0.036719967,0.1152932,0.23352179,0.07907086,-0.07357055,-0.061044287,0.2442051,-0.1426655,0.20006657,-0.048803177,0.30704126,0.16859688,0.1890083,-0.01739962,0.020317825,-0.21588862,-0.038945977,-0.2586559,0.14680095,0.08044516,0.15280302,0.04529602,0.17270152,0.12172655,0.04252941,0.059609838,-0.21572508,-0.2002354,-0.0599302,0.14698723,0.08031441,0.13959266,0.05868221,-0.1645251,0.11526478,0.17721893,0.14255095,-0.06592133,0.08507754,-0.19475728,0.15974215,-0.23198137,-0.18692718,-0.11036963,-0.04795838,0.20556736,0.038890522,0.07528328,0.16904867,-0.06943519,-0.105709404,-0.08690492,0.09484358,-0.18402487,-0.1635331,0.14082034,-0.19008738,-0.14462848,-0.115035325,-0.08042986,0.11956843,0.03757855,-0.08673336,-0.105747715,0.045695458,-0.19070642,-0.096153304,-0.055115674,-0.108820386,0.2467954,0.19515365,0.09231373,0.2134286,0.111860834,0.060221385,-0.013450681,-0.13467184,0.037768867,0.11948669,0.15381768,0.13957228,0.23418643,-0.13028528,0.1359861,0.08034444,0.032422252,0.2586389,-0.119051255,-0.1620624,0.20734982,-0.15729958,0.036394205,0.08286046,0.23929048,0.060782827,-0.054663066,0.113853544,0.23016003,-0.10193474,-0.098200455,-0.23550273,-0.043177966,0.11598296,-0.19950956,-0.29193327,-0.261313,0.020816447,-0.08740175,-0.20339325,-0.13139048,0.24254587,-0.26561654,0.060779147,0.15885578,-0.15245709,-0.26401472,0.086558826,-0.10141424,0.025253138,0.20401332,0.04886367,-0.21924649,-0.12645505,0.10200735,-0.23118645,-0.043063525,0.16356766,-0.15745337,0.13644056,-0.055949207,0.08199082,-0.12260684,0.113069475,0.011358733,-0.20826283,-0.13940719,-0.08161269,-0.049483977,0.2526527,-0.16792674,-0.14693348,-0.20701289,-0.10663641,0.053902987,0.0012527319,0.085836135,0.14646588,-0.08950446,0.21913409,-0.18356799,-0.10906116
o637cl,0.2206786,0.20266995,0.25349888,-0.17413063,0.1670986,-0.022000879,-0.27574718,0.15642294,-0.100325495,0.1417166,-0.04938819,-0.25437632,0.06283566,0.008770683,-0.05349857,-0.1296092,-0.051498,-0.091879316,-0.18004414,0.1603919,0.0041592377,-0.22639157,0.22965883,-0.16507554,-0.24356157,-0.06833602,0.02485439,-0.0033211075,-0.13377528,-0.0010716404,-0.24057198,-0.24346638,-0.07385772,-0.18746018,-0.03294095,0.07485458,-0.12969331,0.104600675,-0.20597945,-0.23289075,0.14441946,0.10766582,-0.08353566,-0.057466324,0.10589883,-0.13000757,-0.102584265,-0.16627558,0.02100398,-0.15909399,0.09568692,-0.060917635,0.029002883,-0.041991044,0.018742776,-0.22613326,-0.12379957,-0.12230284,0.081397004,0.14626771,-0.26131853,-0.052284,-0.2150283,-0.11310412,-0.11692224,0.19619137,-0.12834044,0.054780673,0.14051579,-0.23745063,0.21474531,-0.061801326,0.1417328,-0.05882907,0.20798625,0.0015974568,-0.12170216,-0.1890985,-0.07782575,0.1600957,0.17469539,0.11862519,0.1318489,-0.1503219,0.15108232,-0.09123105,-0.039654072,0.09562907,0.02791253,-0.16474885,0.13928233,-0.03832376,0.15009305,0.15842174,-0.11577485,-0.030225188,-0.13990037,0.10731467,0.018725313,-0.13303874,-0.04027364,0.17822425,-0.23977333,-0.2868441,0.10403515,-0.19316463,0.042293187,0.18955535,-0.20902805,-0.21712251,0.13924162,0.05166533,-0.16317445,-0.13096152,0.110438466,0.0108705545,0.048652537,0.08042149,-0.045896024,-0.19786689,-0.10234328,-0.026204599,-0.15968114,-0.08281833,-0.28054738,-0.058518328,-0.08077174,-0.17019227,0.3878655,0.18197213,-0.10114886,0.18310511,-0.14315519,-0.021866266,-0.124262735,0.06417544,-0.02527771,0.17730144,0.12830873,0.09781664,-0.2997535,-0.12926207,0.13973765,0.11110123,-0.06983206,0.02889304,0.045714356,-0.11236168,0.022872856,-0.043617547,-0.16066094,-0.0054175803,0.04521243,0.06406878,-0.17370956,0.12103081,0.12038181,-0.16554578,0.11191712,0.09343286,-0.09438832,0.17245007,-0.26275665,-0.08473157,-0.24151352,0.09226042,0.14283717,-0.043858744,-0.11932387,-0.114318766,0.014462024,-0.13507931,-0.09273302,-0.24725294,0.20876777,-0.13571385,0.1828126,0.102401,-0.13929325,-0.24612534,0.2977757,-0.07039735,-0.062330123,0.19371039,-0.10704841,0.09001388,0.083651066,-0.23531279,0.005693516,-0.28729117,0.071723156,0.15770544,0.16166563,0.07095769,-0.12609732,0.041730307,0.16094996,0.07762703,0.08184453,-0.19142275,0.13870253,-0.07382191,0.119940385,-0.14299835,-0.11375417,-0.18978854,0.11810031,-0.20064457,-0.12011693,0.19193685,-0.31516957,-0.126954,0.15307675,0.17292081,0.18542616,0.09308502,0.08551391,0.11598822,0.18544543,-0.011571343,-0.19734524,-0.115375414,-0.34873617,0.22340713,0.03493562,-0.09643676,0.18953118,-0.14964785,-0.21200088,0.26207846,0.13148195,-0.015823707,-0.04202225,-0.20296635,0.0002690747,0.0073549217,0.33038852,-0.13701405,0.17177254,0.065505296,-0.14366329,0.22543146,-0.076572806,-0.14739394,0.19585218,-0.12249315,-0.1261727,-0.12724532,-0.0117931785,0.1746174,0.07149065,0.19756179,0.18139331,-0.193656,-0.09485556,0.102673,-0.112611406,0.14237249,-0.1861374,0.21416546,0.061033927,0.034917254,-0.28963336,0.16890064,-0.026993541,-0.31227672,0.040451746,0.14811127,0.14085409,0.10276168,0.061388493,0.056826696,0.17272757,-0.10692998,-0.17074063,-0.08742525,-0.24296583,-0.2819555,0.10486875,0.083446294,0.14221646,0.16089255,-0.108962,0.26535165,0.14397432,0.15922964,-0.109589756,0.3104122,-0.119524434,0.07947882,-0.064336725,-0.08076993,-0.19322613,-0.12723278,0.0913235,0.17756431,-0.062270347,0.107626766,-0.09911646,-0.20661972,-0.06276794,-0.0656639,-0.29420242,-0.16333029,0.0750571,-0.16984159,-0.2895357,0.009534041,0.16613753,0.037648235,0.08076339,-0.07284813,-0.12737013,-0.2755007,-0.11737031,-0.22098096,-0.27239883,-0.17190902,0.13794437,-0.079582356,0.19381641,0.06815027,0.112678416,0.23134391,0.16161832,-0.07948159,0.18632102,0.028192934,-0.06173455,0.05739862,0.116822116,-0.012167994,0.13206287,0.050238498,0.1655938,0.009035318,-0.05975942,-0.21426626,0.046069313,-0.04207096,-0.24861223,0.018418474,0.0012679229,0.15634498,-0.1275194,0.06333376,0.18313767,-0.19563681,-0.15351212,-0.08049324,-0.09244127,0.107007265,0.031051846,-0.0710571,0.0018506774,0.08756588,-0.06430113,-0.08122462,-0.009652417,0.2814004,-0.11620338,0.03739472,0.03170079,-0.14435712,-0.021367501,0.14480521,-0.16691996,-0.13366407,0.19285473,0.16264018,-0.04069029,-0.24392566,0.16361721,-0.10845907,0.03517737,0.08395949,-0.05223037,0.16434388,-0.11728231,-0.06758541,-0.15390794,0.044884942,0.15565985,-0.1770428,-0.25690678,-0.12298348,-0.23972875,0.063229136,-0.28712362,-0.18366759,0.08670413,-0.13097142,-0.16207732,-0.11199691,0.11674512,0.06945336,-0.23988128,0.28647527,-0.13102908,0.20412442
t9agez,0.14104927,0.14377287,0.12157208,-0.09195724,0.063222304,-0.32711896,-0.23238406,0.15717444,0.0006653385,0.020060292,-0.12238178,-0.037353482,0.1434312,-0.08820652,-0.08858065,-0.1385008,-0.020248376,-0.21384847,-0.05838833,0.1873633,0.15062204,-0.15710635,0.21959214,-0.14713694,-0.20831692,-0.04423004,0.10303892,0.39112085,-0.14117758,0.11176484,-0.30205977,-0.102254406,-0.18689467,-0.12253793,-0.0146604255,0.18340285,-0.01232689,0.19818342,-0.050353248,-0.24102505,0.118944034,0.029607093,-0.04287219,0.022171335,0.14143333,-0.03797685,-0.22146377,-0.11338965,-0.26051494,0.040505752,-0.0321441,-0.07200723,0.042638063,-0.107402645,0.18916999,-0.23441365,-0.059843194,-0.10763424,0.09739967,0.16070062,0.04243288,0.19688009,-0.23947415,-0.24504338,-0.21572112,0.21516486,-0.08781334,-0.07469334,0.16282561,-0.07420724,0.07940265,-0.11351389,0.13893439,-0.03168833,0.27503365,0.2022681,-0.048617136,-0.17809881,-0.09962492,0.08787094,0.1384127,0.10776008,-0.041508332,-0.036766108,0.16491942,-0.11643823,0.08012143,0.13689475,0.050055083,-0.15795866,0.17692138,-0.288655,0.26299182,0.10241568,-0.100155324,-0.21706603,-0.12763287,0.12496314,0.21292414,-0.055242047,0.1373415,-0.00197903,-0.07303138,0.01778441,0.041363314,-0.10110482,0.13560131,0.056085568,-0.13713494,-0.32696486,0.1776625,0.1606246,-0.17980316,-0.19885804,0.15910241,0.1707095,0.16051249,0.10171543,0.122605674,-0.046344507,-0.17124651,-0.22362357,-0.17955807,-0.11696306,-0.13040313,-0.117606975,-0.19404954,-0.2156083,0.12503037,0.20917661,-0.07966558,0.29599938,-0.14419964,-0.26102036,-0.25080237,0.22675413,-0.2293127,0.09839316,0.18717746,0.09502877,-0.15582289,-0.11580313,0.12613325,0.11200222,-0.05753653,0.019008944,0.06886561,-0.18027325,0.16371743,-0.073906004,-0.10486698,0.047177594,0.15279628,0.16894019,-0.21659632,-0.04611311,0.19993785,-0.014765444,0.21482699,0.15784885,-0.17357384,0.21513702,-0.21132547,-0.23034427,-0.070453726,0.19317928,0.258174,0.06146265,-0.12791722,-0.18992573,0.20491423,-0.19466211,-0.058659792,-0.14404173,-0.027076507,-0.08640915,0.06426689,0.0941714,-0.03824579,-0.14355941,-0.024397612,-0.061468367,-0.089487284,0.1921606,-0.15576462,0.101684205,0.09045372,-0.14528057,0.025513707,-0.18958092,0.11521534,0.16164985,-0.038864426,0.084554784,-0.13025856,0.025893413,-0.024019653,0.14796568,0.12701382,-0.120250486,0.113525204,-0.24792776,0.017551994,-0.14774992,-0.18508346,-0.2698739,0.061293177,-0.059484903,-0.1481101,0.11614338,-0.18957813,-0.103479676,0.091421984,0.014355808,0.1450129,0.111751296,0.073869206,0.26380798,0.13200995,-0.108674146,-0.13414297,-0.17248453,-0.025941921,0.11240025,0.2343795,-0.13190602,0.19285762,-0.11177439,-0.08643476,0.029607562,0.11840949,-0.33734238,-0.100982316,-0.1916975,-0.061124444,0.12229993,0.15936111,-0.10774104,0.17693932,0.051569544,-0.14636865,0.19392714,-0.15310836,-0.16242175,0.10443187,-0.23560359,-0.20501995,-0.041263327,0.14742117,-0.016182313,0.009012647,0.10659282,0.059499517,-0.15656158,-0.11142513,0.14066853,-0.17315905,0.114247,-0.064099595,0.2170768,0.049493585,0.17275447,-0.04855348,0.10296,-0.18155691,-0.00969564,-0.086795405,0.24567023,0.08812658,0.13566306,0.14566758,0.11676472,0.23126975,-0.18239205,-0.05433811,-0.19676426,-0.059596483,-0.17862703,0.05938009,0.034828104,0.035463788,0.1608245,-0.13162518,0.10105927,0.13312423,0.27649155,-0.12300312,0.26265678,-0.053276073,0.09016292,-0.18639094,-0.1296017,-0.10890332,-0.049542986,-0.03868513,0.07873923,-0.032776672,0.10992646,-0.14270848,-0.08977944,-0.12772718,-0.080560036,-0.12758325,-0.095029056,-0.0033220146,-0.1252666,-0.18755776,-0.12491979,0.059042733,0.025571598,0.14879407,-0.18520088,-0.102901116,-0.15094556,-0.2615172,-0.11132256,-0.032625597,-0.044572234,0.13336538,0.1565966,0.20304747,0.15225144,0.09237004,0.071490735,0.20720303,-0.17499788,0.16375858,0.13900548,0.13058697,0.06213753,0.022434566,-0.14810692,0.05333948,0.08682629,0.11741458,0.26742303,-0.05048005,-0.122131415,0.15404691,-0.3410575,0.056562696,0.035966787,0.22214076,-0.08382441,-0.10702888,0.09287365,0.21101601,-0.12004899,-0.13521934,-0.17857383,-0.059879843,0.18984853,0.037238177,-0.13106929,-0.042087145,0.22896798,-0.08631668,-0.17526461,-0.22110184,0.23147886,-0.14209591,0.26002458,0.09044225,-0.1311182,-0.13680494,0.18321483,0.0017767332,0.040836725,0.27904144,0.21631992,-0.087260835,-0.16221616,0.15879579,-0.12315438,0.02617873,0.27620727,-0.24529104,0.16982222,-0.038571022,0.07645135,-0.17165512,0.09807792,-0.064590275,0.011567918,-0.16001266,-0.14837928,0.023235904,0.19962557,-0.2112805,-0.092969224,-0.02978434,-0.11832003,-0.23201306,-0.17064734,0.22607355,0.15751877,-0.14850108,0.010608822,-0.0477806,0.035743713
jk8lbd,0.19598798,0.054409508,0.085875034,-0.09424954,0.16708797,-0.01646114,-0.14756571,0.020049594,-0.23488998,0.07495164,-0.26030383,-0.037974488,0.12392417,-0.12384039,-0.113057144,-0.10450948,-0.27374908,-0.051740643,-0.22846776,0.08950685,-0.06982355,-0.13101535,0.10395527,-0.18687655,-0.22694886,-0.09757531,0.1968317,0.045414425,-0.19328752,0.010444392,-0.048204955,-0.052482992,-0.08686714,-0.09386831,-0.050243065,-0.034267474,-0.1882634,0.06817259,0.04318673,-0.14387463,0.049921785,0.2597607,-0.22693747,-0.20734322,0.20549496,-0.02990062,-0.13171239,-0.13336983,-0.21693118,-0.10030748,0.109095246,0.012361492,0.21736017,-0.14019696,-0.16934265,-0.025154727,-0.090208106,-0.0961389,-0.033343505,0.17248969,-0.0916451,0.27722698,-0.0652795,-0.15747912,-0.23524588,0.21427846,-0.13323034,0.16568053,-0.008481431,-0.15726133,0.06283404,-0.16148594,-0.030452015,-0.18088697,0.12949349,0.018976076,-0.3242124,-0.14564581,-0.10874619,0.17469554,0.16030262,-0.02857395,0.20189744,-0.0042623733,0.11560526,-0.0779516,0.18389739,0.21290387,0.10495316,-0.14797543,0.113077626,-0.06991517,0.16581516,0.031877257,-0.12648632,-0.23389369,-0.14648943,0.099528044,0.2065333,-0.15301318,0.19853541,0.069254525,-0.23471218,-0.1594265,0.013279977,-0.23095515,0.16872089,-0.1133495,-0.15838605,-0.043686274,0.1355583,0.07472096,-0.026927965,-0.044202805,-0.026122944,0.053542513,0.11082538,0.1355981,0.22212617,-0.19948907,-0.2040314,-0.20677458,-0.37288237,-0.21794575,-0.113475055,-0.058458235,-0.093841255,0.096275136,-0.0956024,0.032619506,-0.25916478,-0.07730996,-0.17312682,-0.02430557,-0.18844278,0.3600401,-0.22465627,0.2131235,0.22849914,0.12253385,-0.3100775,-0.07515562,0.17071001,0.14756915,-0.09928428,0.08509711,-0.044927042,-0.087012164,0.15538451,-0.06483328,-0.08827706,0.15448184,0.0038640418,0.0831308,-0.033345655,-0.033615008,-0.040941417,-0.14970438,0.057226688,0.24114795,-0.13999085,0.050816122,-0.24043332,-0.24735558,-0.09083944,0.15864429,0.08525376,-0.06653505,0.0024243104,-0.059687186,0.05385852,-0.04041879,-0.382549,-0.15012132,0.23630159,-0.23168525,0.22002779,0.31356275,-0.25067282,-0.2415082,0.31485745,-0.29657423,-0.08969709,0.22422738,-0.19517589,0.12838036,0.17089272,-0.20986874,0.1344368,-0.09408407,-0.18613148,0.030229932,0.13541612,0.060282633,-0.36367595,0.29080296,-0.092617765,0.13369237,0.05537591,-0.05208035,-0.021572469,-0.23136747,0.1935403,-0.25040966,-0.14692988,-0.2607877,0.31228742,-0.08359087,-0.043032117,0.009813833,0.16443302,-0.1663199,0.20122325,0.025629986,0.06423189,0.28504446,0.25078788,0.22931929,0.07965922,-0.24475159,-0.14771897,-0.10793422,-0.049687296,0.0175318,0.18527669,-0.106427066,0.26293328,-0.023627821,-0.14670682,0.1190072,0.21535309,-0.12608635,-0.23538858,-0.06582626,-0.06706008,0.23774162,-0.11266889,-0.024327245,0.17028339,0.1899937,-0.100154325,0.2020189,-0.22118886,-0.1169663,0.24088964,-0.101049826,-0.29378942,-0.018637247,0.20197463,-0.044214446,0.22282013,0.21462865,0.3767959,-0.19287997,0.1044049,0.091530785,-0.07711521,0.029452095,-0.28692752,0.15033393,0.21594496,0.12876762,-0.12224397,0.1261316,-0.016131131,-0.12794137,-0.26136255,0.11157606,0.11178126,0.044216372,0.0721651,0.14389223,0.07029677,-0.05959248,0.12329896,-0.35990003,-0.042598456,-0.21252972,-0.094906904,-0.0068449876,0.18428549,0.0468252,-0.122995354,-0.038544495,0.1378082,0.097890265,-0.27211756,0.09484674,-0.18141253,0.093261145,0.07795713,-0.21638659,-0.10107958,-0.26382375,0.21796227,0.17777272,-0.1256624,0.19420992,-0.045440506,-0.29104385,-0.13575707,0.18601055,-0.24615496,-0.1069584,0.11844475,-0.12224843,-0.37045538,-0.14076307,0.05281384,0.017169597,0.29562587,-0.13627578,-0.12998353,0.029815381,-0.27266896,-0.10452962,-0.1655122,-0.19666445,0.17045407,0.048835274,0.1974479,0.0078245,0.1455414,0.17443421,0.15002818,-0.15201117,0.12988989,0.029339079,0.26407313,0.11447191,0.18114793,-0.33480567,0.10672409,0.15491128,0.29350403,-0.06383303,-0.17552719,-0.04314472,0.0057779066,-0.11254318,-0.28446475,0.08358809,0.031625606,0.13369092,-0.09510148,0.209034,0.1440756,-0.17297874,-0.28859472,-0.087497935,0.0093612885,0.15266696,0.058173236,-0.035615165,-0.029809047,0.38055068,0.075279586,-0.0106742345,-0.26177227,0.078869514,0.08008497,0.2937247,0.23960789,0.0039044286,-0.0047331857,0.20266144,-0.28071156,-0.20900664,0.25851107,0.15221417,-0.17007276,-0.04594507,0.0407517,-0.23014385,-0.07226159,0.23001741,-0.14912903,0.015059256,-0.02194975,-0.032332104,-0.17862265,0.15974194,-0.06647737,-0.14071979,-0.13213114,-0.0142695885,-0.11113592,0.1558536,-0.042243328,-0.06315611,-0.00032662455,-0.16498592,-0.23834471,-0.023214862,0.07552587,0.23622574,-0.24168609,0.10712604,-0.121517844,0.20738296
ac5sr7,-0.031443845,0.11399596,0.0863892,-0.16126971,0.22092707,-0.20532039,-0.07403315,0.1526897,-0.29193205,0.26691324,-0.107474074,-0.09835498,0.062303267,-0.23099376,-0.089034855,-0.13674404,-0.12921177,-0.062087413,-0.16745599,0.047707316,0.2064838,-0.24147777,0.19916329,-0.13284001,-0.14784901,-0.17058772,0.27311087,0.15312828,-0.049370408,0.1492682,-0.071646616,-0.123612806,-0.06328982,-0.10496194,-0.010666221,0.2418496,-0.17751275,0.16116615,-0.26971677,-0.071383476,0.17605633,0.025546014,-0.19280787,-0.07147242,0.122382686,-0.14178698,-0.11336598,-0.11131627,-0.23737355,-0.120920904,0.108192876,-0.111899875,0.19508865,-0.07741821,0.28871202,-0.07953587,-0.14110857,-0.11330143,0.099707805,0.16763742,-0.1353424,0.08489065,-0.14235978,-0.12607047,-0.090076,0.06683942,-0.25919184,0.19931355,0.13986425,-0.0481575,0.043485,-0.15888947,0.12696594,-0.077339,0.24738891,0.07545049,-0.15689412,-0.19165066,-0.08115671,0.086646624,0.112750284,0.003450708,0.110340945,-0.2108614,0.05571053,-0.17785433,0.13567226,0.11964714,0.0885826,-0.07849601,0.16521105,-0.14722818,0.25161234,0.12013454,-0.25270376,-0.1110211,-0.10113262,0.07394938,0.065869845,-0.041215673,0.15248498,0.09530109,-0.10946966,-0.07206916,0.010375149,-0.22527374,0.12577817,0.10938011,-0.17142409,-0.20262428,0.17009038,0.15289193,-0.044666376,-0.1368049,0.061200563,0.047980633,0.20206854,0.042097777,0.13002636,-0.10657439,-0.006865017,-0.19030093,-0.16252704,-0.097630404,-0.25604773,-0.0012900279,-0.18598492,-0.048610263,0.015283642,0.17107487,-0.13570583,0.16761717,-0.09430334,-0.17912036,-0.12056981,0.076549985,-0.18827584,0.20447965,0.08096591,0.08967241,-0.09802217,-0.16002625,0.21075739,0.18238688,-0.03914962,-0.02482952,0.028136196,-0.15083228,0.18990983,0.0068305233,-0.15480125,0.13693304,0.16687691,0.15244162,-0.24755897,0.15639065,0.20653138,-0.10699418,0.039232392,-0.0009784333,-0.15786938,0.20333925,-0.13242646,0.028581694,-0.14285418,0.13943435,0.11461933,-0.17624359,-0.09915092,-0.19077922,0.07568956,-0.1087367,-0.08094715,-0.2885954,0.19096573,-0.16570053,0.20804495,0.032038037,-0.089512885,-0.072445996,-0.042425748,-0.16157593,-0.103821,0.14652057,-0.17029287,0.085070856,0.041318934,0.0741385,0.066138215,-0.23805508,0.30620778,0.13637142,0.10357754,0.13488317,-0.11935217,0.1631474,-0.3567673,0.015303972,0.14125259,-0.08646815,0.22421233,-0.14804469,0.16971064,-0.07498877,-0.12583593,-0.19141683,0.17239024,-0.028775886,-0.11912655,0.19511811,-0.17707618,-0.16650014,0.1677794,0.15184136,0.16229305,0.016894422,0.020054424,0.17334814,0.095068246,-0.16164148,-0.1446454,-0.05828747,-0.038148634,0.12190498,0.122316234,-0.31865203,0.09865817,-0.1249883,-0.15510297,0.031498004,0.17880155,-0.13955021,-0.01572255,-0.023755161,0.09889026,0.098145425,0.13513948,-0.14918537,0.14903913,0.18028657,-0.084328175,0.023009399,-0.12131939,-0.07274635,0.023455372,-0.23878689,-0.112612404,-0.18197748,0.18306336,0.1297431,0.2029386,0.16650847,0.105504595,-0.031013338,-0.12440512,0.23666406,-0.016324377,0.12720527,-0.08830073,0.1557698,0.11919213,0.17512111,-0.10413144,0.017254643,-0.14269927,-0.02084119,-0.050280932,0.11736357,0.035967354,0.11595637,0.11512623,0.2202402,0.19405124,-0.18765397,0.047934655,-0.15404718,-0.13105902,0.056532603,0.0584669,0.13181144,0.109290935,0.027537564,-0.14926365,0.2170015,0.17589353,0.18670073,-0.09370042,0.1931094,-0.10274064,0.19144817,-0.18531641,-0.10751475,-0.24296428,-0.06399946,-0.032707013,0.040210396,-0.1523544,0.12319531,-0.15807556,-0.15802231,-0.049027205,-0.05747472,-0.041380003,-0.08802657,0.18026692,-0.12709364,-0.16917601,-0.23534255,0.1560616,0.1610348,0.16859733,-0.13218468,-0.08042166,-0.09159561,-0.019551262,-0.09279888,-0.17282735,-0.069149494,0.11135422,0.15648314,0.17029949,0.16771273,0.10239452,0.032332066,-0.02656405,-0.09072496,0.06989052,0.09408053,0.16988587,0.08706678,0.08489854,-0.0855167,0.15446311,0.11592754,0.08550286,0.0610578,-0.092038326,-0.12636897,0.13883041,-0.17419897,0.010485355,0.16523738,0.20796302,0.17304444,-0.19167852,0.08104387,0.044855777,-0.17765322,-0.063804984,-0.06944872,-0.047640163,0.15879738,-0.18972304,-0.06294457,-0.17888457,0.04015842,-0.08602165,-0.10784035,-0.10267331,0.15226941,-0.090822995,0.07426542,0.10154177,-0.008778335,-0.2209174,0.1759285,-0.13120042,-0.133328,0.07596953,0.11522134,-0.1762043,-0.16480823,0.1949718,-0.15343584,-0.07269187,0.09477409,-0.13753445,0.10053748,-0.13734153,0.24723123,-0.15090945,0.09785795,0.11478795,-0.095903955,-0.07191778,-0.26598802,-0.2270339,0.09599418,-0.17432287,-0.11532768,-0.15259363,-0.12114698,0.022516666,-0.20069608,0.11709125,0.18293883,-0.016471175,0.22477189,-0.066548996,0.15488215
q4ah74,0.24383059,0.095135845,0.098815456,-0.17873639,0.23262349,-0.22287376,-0.05273042,0.2203831,-0.041335996,0.12110049,-0.08319324,-0.06327669,0.14925562,-0.20113716,-0.07018584,-0.074640594,-0.14167358,-0.043185543,-0.117983446,0.03230119,0.08070917,-0.14359577,0.14487968,-0.20222367,-0.1576629,-0.1148927,0.22521569,0.04033842,-0.07204916,0.03209589,-0.0917406,-0.15734334,-0.15586467,-0.15204652,-0.090196624,0.22485125,-0.16130032,0.06431424,-0.19910161,-0.08834113,0.15269223,0.0982886,-0.13158065,-0.1501452,0.1876044,-0.12324666,-0.1963744,-0.095123686,0.042465385,-0.15265614,0.12910752,-0.11751697,0.1467699,-0.12969731,0.1741365,-0.06394614,0.03175817,-0.080544986,0.1716625,0.09128608,-0.10301827,-0.03228793,-0.10990159,-0.043646507,-0.021879451,0.1513566,-0.14040339,0.28147712,0.115614064,-0.27476022,0.13104013,-0.22698364,0.103738874,-0.08171503,0.09035105,0.056983203,-0.020461606,-0.18296376,-0.2316596,0.055754267,0.11305771,0.107539415,0.2176232,-0.2232253,0.04116386,-0.17141862,0.1793152,0.07968551,0.21311298,-0.21341811,0.1500699,-0.2100764,0.16215332,0.12218086,-0.01993636,-0.028993532,-0.109294064,0.16035491,0.16354665,-0.08256641,0.17403111,0.11932766,-0.18392056,-0.04329616,0.05607004,-0.1303345,0.17776419,0.17888609,-0.06553495,-0.063875236,0.21849202,0.28368932,-0.13916068,-0.13626274,0.07647638,-0.08097356,0.32121298,0.028854476,-0.055986248,-0.19346206,-0.097017854,-0.12994356,-0.14351264,-0.2018261,-0.23185469,-0.040799502,-0.13452928,-0.17184652,0.018858854,0.17363091,-0.10970394,0.119279094,-0.17809407,-0.16541643,-0.07586256,0.018823361,-0.15219066,0.21944952,0.06337438,0.07336337,-0.050045256,-0.23157972,0.18082303,0.15362622,-0.11486615,0.13347192,0.14085706,-0.06590341,0.26538405,-0.11803831,-0.15536228,0.17754075,0.1498936,0.053100735,-0.16750613,0.12639998,0.12566052,-0.19694605,0.15796503,0.24027376,-0.21539387,0.1400478,-0.14805715,-0.099895306,-0.12125849,0.16760224,0.16185306,-0.028487178,-0.014869462,-0.18227066,0.16268933,-0.23921525,-0.15356855,-0.13911869,0.11570484,-0.07182434,0.11742166,0.13064899,-0.18114382,-0.014081584,0.08807042,-0.20516714,-0.1693006,0.16058913,-0.096941024,0.10795356,0.035231173,-0.018867869,0.19595015,-0.21967912,0.234938,0.26070285,0.090576656,0.13650227,-0.067430176,0.15943943,-0.33778352,0.046508674,0.08285985,-0.0625354,0.15414868,-0.12566541,0.11146061,-0.03905548,-0.110263474,-0.2090394,0.2090434,-0.16408758,-0.09370023,0.1636143,-0.11767369,-0.24046323,0.08532143,0.07476303,0.16658586,0.18396771,0.16865149,0.15888432,0.144921,-0.19287173,-0.30832267,-0.018451683,-0.023423178,0.10829129,0.094549514,-0.15703382,0.14815773,-0.03636854,-0.18298706,-0.018311517,0.17832747,-0.13304214,-0.04051352,-0.083055325,0.10051679,0.07782487,0.112551615,-0.10017483,0.09786786,-0.0014538522,-0.112134576,0.075189255,-0.27448985,-0.0496921,0.05410713,-0.03408241,-0.104459636,-0.14470947,0.054188892,0.11532431,0.14661878,0.1581964,0.116830364,-0.20344062,-0.122685015,0.13498537,-0.07200296,0.12713256,-0.076921456,0.106874846,0.02549401,0.18073691,-0.19300728,0.03660638,0.008936917,-0.1920561,-0.10835652,0.13883828,0.007996194,0.23653361,0.19014163,0.2196471,0.19006597,-0.027522301,-0.050205756,-0.13327923,-0.1049775,-0.10690319,0.082765125,0.11278481,0.12993947,0.04092002,-0.05629315,0.123994626,0.13473877,-0.025932668,-0.16686746,0.2667348,-0.094479024,0.13910043,-0.28591445,0.062493976,-0.35304102,-0.15805484,0.28427517,0.19943859,0.010944751,0.14454466,-0.20348777,-0.18042284,-0.047529813,0.077488504,-0.105873,-0.14866628,0.09980698,-0.050089356,-0.14712135,-0.08513951,0.25874755,0.2124789,0.047354806,-0.08144499,-0.17757562,-0.21033144,-0.059571896,-0.22311066,-0.12259223,-0.085925825,0.12592585,-0.037265085,0.25585634,0.071779,0.093413495,0.02210505,0.0991978,-0.12105766,0.031236336,0.08262637,0.044162907,0.03523195,0.15245856,-0.15552692,0.16312864,0.11073009,0.0067474744,0.05358356,-0.12945057,-0.06502388,0.069413394,-0.18226175,-0.055761687,0.006781724,0.111342184,0.13205485,-0.13538232,0.07733097,0.070208676,-0.04827439,-0.074768044,-0.1934696,-0.15394199,0.14168651,-0.23725744,-0.13111559,-0.20940977,0.11986181,-0.060769554,-0.100720495,-0.044497047,0.14445923,-0.051011506,0.04748085,0.08525005,-0.11523701,-0.25977388,0.2260627,-0.08512322,-0.11474841,0.11034613,0.15000108,-0.20683572,-0.110864,0.18578385,-0.13661276,-0.060301855,0.31017426,-0.2372946,0.11852422,-0.056156076,0.10997956,-0.14321512,0.04039113,0.23669061,-0.18137878,-0.22156544,-0.18025814,-0.14466694,0.18000945,-0.011236751,-0.07820995,-0.08111656,-0.18376914,0.05631902,-0.19414717,0.12108292,0.10789658,-0.10132911,0.120637625,-0.097050026,0.19929342
kfl36r,-0.005384329,0.10253398,0.24402893,-0.30231574,0.17842902,-0.16374154,-0.25006253,0.21644153,-0.13630745,0.2688854,-0.08342858,-0.16008513,0.12156182,-0.1831939,-0.0005967165,-0.056165732,-0.08784367,-0.15169068,-0.052211616,0.105595805,0.09096532,-0.08214178,0.18683572,-0.17380384,-0.02566371,-0.18840899,0.27557313,0.13623083,-0.02192382,0.019758146,-0.19805184,-0.0063989456,-0.1727423,-0.17298761,0.05754793,0.046114087,-0.06939686,0.16036707,-0.21525684,-0.11341921,0.09714718,-0.107046604,-0.17845921,-0.16413645,0.091944575,-0.16143863,-0.12969612,-0.16843483,-0.05665249,-0.05335415,0.07744119,-0.047400553,0.12876306,-0.259682,0.12735401,-0.16450565,-0.15300345,-0.04856001,-0.004009987,0.17011675,-0.2740179,0.035727646,-0.10160351,-0.10095068,-0.06358523,0.24299793,-0.18501337,0.15699254,0.10034551,-0.11937066,-0.063225135,-0.17000467,0.06455554,-0.15273671,0.28579757,0.027617263,-0.26740813,-0.20164059,-0.19691648,0.10974034,-0.031221276,0.12215551,0.048802584,-0.07678837,0.16080698,-0.14192946,0.18171458,0.114465155,0.0956091,-0.10220356,0.14658481,-0.18627791,0.3676356,0.14167525,-0.13950826,-0.037590362,-0.11122574,0.13749056,0.026703052,-0.16180405,0.22389126,0.04972182,-0.08806083,-0.024282206,0.1964299,-0.07460637,0.10092167,0.16964595,-0.18038593,-0.11566125,0.08286457,0.16127947,-0.16188653,-0.059957832,0.13650021,0.08841281,0.050739024,0.17385836,0.14769688,-0.13228746,-0.013680138,-0.21424198,-0.15922263,-0.14079419,-0.16876753,-0.12264211,-0.18614712,-0.09946837,0.08284059,0.08268173,-0.09874016,0.18557766,-0.29050884,-0.082153924,-0.21144618,-0.0057348576,-0.15133984,0.13006175,0.20937406,0.11810303,-0.048412766,-0.22888687,0.14763434,0.07984763,-0.045077607,-0.014664666,0.0693513,-0.21078554,0.05347232,-0.08726975,-0.080001414,0.18186337,0.14942132,0.017114064,-0.14309481,0.079071164,0.15470657,-0.11364168,0.21982157,0.11557181,-0.013850396,0.28596407,-0.12686683,-0.05439941,-0.13286178,0.14391735,0.12356021,-0.09321909,-0.084030025,-0.27900568,0.14527737,-0.05392948,-0.13748492,-0.17128196,0.06803171,-0.015485012,0.25064957,0.07429608,-0.06600049,-0.14769049,0.13758887,-0.21356034,-0.18973082,0.014181921,-0.13859856,0.101977356,-0.061133485,-0.16348292,0.034301396,-0.2219271,0.16256054,0.1798441,0.12598862,0.13718371,-0.0537578,0.15343077,-0.20558195,0.012858555,0.0847078,-0.08599269,0.11910489,-0.21195446,0.12539107,-0.11409349,-0.026314467,-0.09078594,0.049906373,-0.060480226,-0.14923953,0.16441418,-0.17121531,-0.13020766,0.10554148,0.1714456,0.18910365,0.028047552,0.04020874,0.21296489,0.14478037,-0.04573908,-0.28438187,-0.08404877,-0.08144643,0.21029307,0.13785735,-0.009886107,0.10919989,-0.1375633,-0.1729348,0.18460284,0.117371455,0.010162794,-0.12362734,-0.08185524,0.124342285,0.09336301,0.22122261,-0.052694008,0.17475815,-0.07202641,-0.16616812,0.18517084,-0.08167991,-0.104267016,0.07915948,-0.26776692,-0.13170522,-0.15657103,0.0855284,0.15918534,0.20306738,0.16627178,0.1472988,-0.09028939,-0.15703405,0.16081795,-0.051810328,0.13498524,-0.055516917,0.06378422,0.23554021,0.14380948,-0.2427448,0.098266065,-0.31142706,-0.017412523,-0.20638134,0.15862952,0.19000658,0.15102157,0.09812684,0.19817363,0.17124644,-0.13221563,-0.028624708,-0.18316035,-0.14239489,0.052174203,0.1153095,0.068923116,-0.007948968,0.22874315,-0.16518667,0.15413252,0.25708178,0.15989205,-0.060588673,0.20076165,-0.22771768,0.16719526,-0.09911085,-0.14312536,-0.11167676,-0.04658387,0.009559089,0.21749955,-0.37467903,0.031964894,-0.12463443,-0.2527767,-0.12286213,0.017203895,-0.28676355,-0.15796566,0.1369747,-0.021271551,-0.112062834,-0.12938842,0.10014785,0.14164774,0.13665217,-0.15531945,-0.022939786,-0.015586009,-0.16240436,-0.21006885,-0.21842304,-0.108975835,0.0080556385,0.09158111,0.24865283,0.14424054,0.1414913,0.2611203,0.08855046,-0.029269498,0.13313355,0.16332258,0.023795702,0.28489384,0.13715063,-0.04217796,0.04439352,0.19775215,0.010534074,0.04368442,-0.14106348,-0.14644177,0.15664902,-0.1612728,-0.05868976,0.16110726,0.2576411,0.061157398,-0.16264209,0.120084494,0.15368249,-0.12369878,-0.124744,0.022579346,-0.12153249,0.040042173,-0.059047844,-0.18074222,-0.081351735,0.20268442,-0.20087177,-0.11542967,-0.14952219,0.20528871,-0.2354787,0.029815983,0.06860019,-0.090558946,-0.15227953,0.078327864,-0.122887984,-0.057769813,0.32005617,-0.010696355,-0.098043576,-0.1351704,0.17066686,-0.15248913,-0.16410021,0.165493,-0.07193205,0.10326776,-0.21173365,0.025473714,-0.15898886,0.015344025,0.014561151,-0.215812,-0.12370867,-0.27889323,-0.1762792,0.12982272,-0.13851584,-0.018230638,-0.14725749,-0.118784666,-0.08496074,-0.06279975,-0.016901096,-0.01599292,-0.03178225,0.20628606,-0.035997044,0.17257749
r3zr1u,0.2444848,0.11533175,0.14871931,-0.20296896,0.2131911,-0.14157122,-0.14128372,0.20354077,-0.14943829,0.18476802,-0.18521929,-0.10172131,0.10359051,-0.076238364,-0.20094813,-0.08682684,-0.2258429,-0.06702149,-0.10642815,0.14791243,0.13798082,-0.18995024,0.16078936,-0.115564436,-0.05722116,-0.12634924,0.025271902,0.18575686,0.024410259,-0.04923177,-0.30177847,-0.17097338,-0.22922812,-0.1658317,0.07480047,-0.017277569,-0.008562997,0.0064350246,-0.1937612,-0.037748635,0.11985059,0.06606162,-0.12893727,-0.08672439,0.07129153,-0.08702644,-0.08404428,-0.20783775,-0.06394616,-0.22268498,0.09062202,-0.15182318,0.1989712,-0.29334536,0.062615156,-0.17722012,-0.028894957,-0.18424904,0.11194217,0.09245284,0.042338926,0.112231724,-0.017124437,-0.072181664,-0.018170781,0.04755335,-0.075638235,0.21861054,0.14333072,-0.19762586,-0.020505363,0.033397708,0.006462215,-0.10854998,0.068563856,0.13716313,-0.1480211,-0.111592405,-0.16476268,0.12067713,0.16315116,0.09186563,0.08553085,-0.1284026,0.1547905,-0.09258697,0.106680736,0.17698018,0.14923179,-0.13730636,0.23375928,-0.14188054,0.16280796,0.19713382,-0.13355123,-0.13869298,-0.05625133,0.028611334,0.25126106,-0.014519176,0.2710149,-0.02633746,-0.18851407,-0.1386407,-0.01921382,-0.15402259,0.14725676,0.19400068,-0.05428244,-0.21351677,0.13679397,0.09131191,-0.1277021,-0.0937573,0.063917376,0.18900035,0.09980289,0.07589836,-0.08898059,-0.16937554,-0.06610586,-0.03666695,-0.02696872,-0.06253095,-0.09590816,-0.21444145,-0.18049929,-0.26324165,0.0058376435,0.24730933,-0.2011141,0.1773661,0.029027302,-0.06261705,0.028199108,0.030334339,-0.008212945,0.24330285,0.074169286,0.14100294,-0.18605311,-0.13259712,0.07255741,0.13246074,-0.2262281,0.037553675,0.14759643,-0.13460067,0.13345127,-0.15305798,-0.14676923,0.09598647,0.1952214,0.0987435,-0.118666805,0.12424082,0.09511215,-0.20922042,0.1770264,0.21991362,-0.12909402,0.06509252,-0.21204498,-0.16372234,-0.2233511,0.13347362,0.19605376,-0.12210854,-0.22024027,-0.08022943,0.12250103,-0.16358313,-0.1512993,-0.07714549,0.15142903,-0.08548873,0.11782208,0.15450923,-0.23345403,-0.1462988,-0.010329195,-0.10848134,-0.18094814,0.088389546,-0.12759429,0.20527618,0.15366513,-0.094136015,0.17099237,-0.21325178,0.12514633,0.099852,0.04769591,-0.008756568,-0.11773189,0.23297788,-0.10107413,0.22191201,0.17186329,-0.12497145,0.15280555,-0.15540512,0.20730156,-0.058398508,-0.12986349,-0.22362101,0.14524385,-0.17715888,-0.023886424,0.1940502,-0.045098323,-0.2799027,0.12273309,0.134836,0.22313832,0.14261368,0.1114103,0.14334671,0.18171558,-0.13157251,-0.16612588,-0.05280505,-0.07700359,0.12929964,0.17163242,-0.05610998,0.14222836,-0.09122584,-0.24240176,0.15388055,0.18107918,-0.18431114,-0.15802494,-0.08962269,0.23929045,0.17669193,0.13440211,-0.095052816,0.152037,0.12889442,-0.15548436,0.1423534,-0.1307162,-0.14245401,0.046051655,-0.056844495,-0.12106525,-0.11123054,0.15151815,0.2392427,-0.076396115,0.09360869,0.12682383,-0.09394214,-0.1764529,0.13908882,-0.20458564,0.19223987,-0.18519823,0.121576905,0.0847673,0.07988461,-0.11425672,0.1763754,-0.10479357,-0.16693206,-0.017285416,0.08932358,0.21555561,0.05807322,0.20696436,0.11624416,0.10897409,-0.23576678,-0.26413628,-0.13390657,0.031688094,-0.25558585,0.19443735,0.14455229,0.050551325,0.12077072,-0.058982313,0.07211611,0.09558606,0.18060037,-0.1568466,0.24724992,-0.13046461,0.15776193,0.00034416962,-0.07497932,-0.16793546,-0.24893081,0.24058317,0.15928757,-0.040383305,0.13512582,-0.22156236,-0.22398469,-0.035466198,0.042124454,-0.14164802,-0.13533014,0.08499271,-0.04159739,-0.119481854,-0.05327064,0.2416957,0.059646152,0.14279592,-0.0754956,-0.2460089,-0.18539764,-0.09376624,-0.04313904,-0.25836954,-0.07416937,0.1646824,0.024137868,0.19918326,0.21293761,0.122356325,-0.07843272,0.19432843,-0.1601601,0.06605513,0.16646767,0.14556715,0.030140257,-0.06618397,-0.161859,0.053469967,0.20161869,0.28449085,0.20563184,-0.09448682,-0.24567361,0.13366944,-0.15620808,-0.09247408,0.006562248,0.1535028,0.17380413,-0.071236335,0.08487704,0.11541193,-0.108861506,-0.07045387,-0.24494813,-0.17763174,0.08490181,-0.118097335,-0.12031392,-0.06836469,0.29479966,0.03223582,-0.1099766,0.01412944,0.1181374,-0.14234103,0.14756738,0.20145993,-0.12231419,-0.16413897,0.08388044,0.019098204,-0.12251652,0.14245021,0.1275842,-0.18458994,-0.25804484,0.121211275,-0.13124354,-0.100956924,0.18485323,-0.15476985,0.1669628,-0.15549238,-0.0049678525,-0.0851573,0.022173412,0.043033883,0.059844367,-0.23238476,-0.053122614,-0.20186362,0.091233894,-0.020072319,-0.24542224,-0.24057285,-0.0923642,-0.062313255,-0.16343285,0.16602312,0.18298168,-0.18408458,0.13357672,-0.03524396,0.0823121
et6r37,0.03884071,0.13664529,0.13811938,-0.2501236,0.16626136,-0.11087112,-0.022541229,0.117488295,-0.045781154,0.18868513,-0.08866916,-0.07633207,0.20912911,-0.07706265,-0.16191046,-0.20198442,-0.12880944,-0.08123167,-0.18461314,0.20160371,0.2745237,-0.09887866,0.062600605,-0.03864904,-0.08462432,-0.069684215,0.25361606,0.10589735,-0.19560137,0.118113875,0.11862114,-0.30582225,-0.13952115,-0.12861644,-0.003887257,0.14357075,-0.17414677,0.07022457,-0.0769278,-0.061550252,0.10762684,0.0856336,-0.14854407,-0.25470477,0.11123927,0.05859523,-0.07012432,-0.10132201,0.06730488,-0.18027383,0.13321126,-0.1759193,0.13719797,-0.09358563,0.29576817,-0.114832796,-0.021617042,-0.14947769,0.13777699,0.20296846,-0.11480803,0.02381037,-0.22434565,-0.13211228,-0.0033013357,0.067193866,-0.2594826,0.30012003,0.23371205,-0.21358709,0.22329459,-0.107034326,0.07582942,-0.035881817,0.17722584,0.030867767,-0.023932388,-0.17508239,0.052441455,0.08425549,0.24141255,0.18056694,0.24415272,-0.20478432,0.055025317,-0.15844952,0.024426142,0.20649162,0.09408544,-0.06794966,0.15332265,-0.08634734,-0.00779365,0.14533763,-0.15910085,-0.13636358,-0.11838414,0.15885435,0.046948794,0.034429897,0.00022752571,0.34442875,0.03123441,-0.2427432,0.10499826,-0.0961428,0.13288201,0.2412354,-0.0029180804,-0.12111554,0.11951804,0.10872408,-0.2768737,-0.15735756,0.06513633,0.06849216,-0.0058247205,0.13729171,0.076593824,-0.1909965,-0.041262735,0.0051437817,-0.07707595,-0.08638355,-0.26391342,-0.0692999,-0.064622395,-0.22966978,0.052704718,0.12084954,-0.05938165,0.25965092,-0.13258289,-0.27181658,0.007054316,0.15289024,-0.08248656,0.091180906,0.08169532,0.06382106,-0.15203506,-0.15718025,0.027431961,0.12763827,-0.151799,0.17638946,0.024683615,-0.07229194,0.10392415,-0.07533623,-0.22239679,0.13819271,0.1413857,0.05922855,-0.01065867,0.139554,0.19480991,-0.24088642,0.14165905,0.04999544,-0.21311247,0.096439384,0.03852958,-0.08849817,-0.23906176,0.12336338,0.14509189,-0.06712069,-0.13699377,-0.113483265,0.13328137,-0.15049925,-0.071678974,-0.2627381,0.23291963,-0.13450332,0.17576057,0.23176214,-0.17594977,-0.024933267,0.16602367,-0.039146386,-0.1830612,0.050350513,-0.15584855,0.15156762,0.1774792,0.056722738,0.12983802,-0.16873297,0.16121413,0.13325298,0.064074785,0.16387708,-0.2369687,0.23300655,-0.24868482,0.015882496,0.20519954,-0.13093399,0.09032277,-0.026192408,0.17903239,0.034547582,-0.010844448,-0.07851687,0.09587646,-0.20684889,-0.116325974,0.15346001,-0.22916082,-0.21589454,0.07093453,0.11284915,0.18670999,0.11804233,0.052438986,0.07860432,0.20126918,-0.15619919,-0.12545942,-0.024513703,-0.24693686,0.0473012,-0.03247873,-0.14008707,0.124496415,-0.18237352,-0.22427265,0.08193989,0.12683724,-0.123761676,-0.07320557,-0.19730006,0.05548311,0.08921532,0.30657226,-0.17386012,0.21159129,0.18780324,-0.20907137,-0.007993655,-0.16491285,-0.04950057,0.19491616,-0.22246246,-0.102442876,-0.14586072,0.029377682,0.2705683,0.14169337,0.1850389,0.07100705,-0.17943281,-0.14192864,0.29452485,-0.09573295,0.06394863,-0.1746323,0.1263874,-0.042828023,-0.008191519,-0.13675985,0.0067075565,-0.13878317,-0.18147543,-0.25149155,0.19105323,0.18784316,0.21863815,0.20768483,0.07388117,0.08643185,-0.15269385,-0.15418634,-0.032669306,-0.13893664,-0.262823,0.26531428,0.10150967,0.18190655,0.017906401,0.022637216,0.17233658,0.10853142,0.17258279,-0.17926101,0.15466887,-0.10315898,0.21232037,-0.26404393,-0.12507255,-0.2712559,-0.14849539,0.08657111,0.15781297,-0.15874392,0.17321812,-0.007513261,0.039959308,0.009438834,0.122716315,-0.15316406,-0.1160562,0.16898587,-0.001087981,-0.081582464,-0.3484104,0.22501011,0.023586297,-0.02297077,-0.19901225,-0.2976136,-0.18974197,-0.055625625,-0.075802155,-0.110796034,-0.093106955,0.10522456,0.049225595,0.10156848,0.16659887,0.043683168,-0.085022315,0.02862063,-0.16543585,0.048868343,0.17740539,0.01620112,0.057881728,0.13245668,-0.096175954,0.1586354,0.03936204,0.14706597,0.06668041,-0.060252212,-0.2082833,0.11209424,-0.12294745,-0.10976079,0.0152412,0.23990494,0.23949386,-0.05007065,0.104941465,0.18018176,-0.17795932,-0.21500024,-0.26093632,-0.129384,0.19449618,-0.20919858,-0.20567752,-0.2948432,0.007164843,0.05306163,-0.1470974,-0.012836302,0.12758256,-0.052431755,0.054081935,0.07303931,-0.1205648,-0.1172216,0.1666765,-0.19615905,-0.25821742,0.11306113,0.2079062,-0.2116011,-0.21179503,0.19129446,-0.16414222,-0.10790265,0.16354898,-0.19808389,0.23905687,-0.18216102,0.14266914,-0.08524207,0.082092054,0.18551101,-0.17048664,-0.21714793,-0.16559885,-0.11195271,0.0022959667,-0.09489286,-0.24802741,-0.06649057,-0.14572465,-0.008263878,-0.21669577,0.13484885,0.034877334,-0.11779031,0.1905983,-0.107533954,0.1623521
r6nxpl,0.09161593,0.056975663,-0.019356161,-0.111211084,0.03592443,-0.16069062,-0.22603956,0.09378483,-0.0018514417,0.11767466,-0.2194364,-0.028408898,0.15213281,-0.16264656,-0.031188304,-0.13886309,-0.16242127,-0.2051362,-0.05365042,0.15722035,0.16623323,-0.1981835,0.06654922,-0.12855439,-0.08030406,-0.12907115,0.056818698,0.2546582,0.011258062,0.20581442,-0.28814858,-0.15122166,-0.15972047,-0.1369415,-0.03744974,0.18573035,-0.014334315,0.11532732,-0.23687127,-0.060524393,0.19455492,0.11642474,-0.18303865,-0.087517224,0.23449509,-0.31729242,-0.079461,-0.045831762,-0.11442799,-0.21135935,0.13341647,-0.24048398,0.0633033,-0.15034491,-0.020274984,-0.17872003,-0.24311572,-0.050887875,0.11796459,-0.049169224,-0.044311527,0.19441816,-0.05826019,0.0006176934,-0.10336217,-0.008441858,-0.087069295,0.1626219,0.17499544,-0.1773211,0.20341976,-0.25432083,0.16324379,-0.22574572,-0.0066607,0.2232415,-0.021720426,-0.14775918,-0.30926064,0.1574713,0.27972984,0.20725517,0.196624,-0.09727612,0.106071614,-0.14810926,0.158454,0.16514,0.2770475,-0.05878918,0.13265462,-0.1887291,0.04663569,0.1760768,-0.058020458,-0.14650905,-0.08222091,0.07088969,0.16135891,-0.23608677,0.15583462,0.053441327,-0.09575779,-0.16564123,0.11793338,-0.21374302,0.24492356,0.21677461,-0.124528036,-0.21412383,0.1988936,0.16647407,-0.13251926,-0.17030525,0.1361433,0.1257576,0.20510373,0.20313726,-8.095988e-05,-0.14322501,-0.057658367,0.06567943,-0.102451794,0.011706215,-0.15649897,-0.089757115,-0.19247985,-0.08819045,0.24664168,0.19803289,-0.0935254,0.12994035,-0.053432204,-0.04498771,-0.091196015,-0.093495,-0.0718447,0.21970731,0.1467879,0.15359405,-0.20296763,-0.12179322,0.047411982,0.1868443,-0.27066785,0.16727567,0.1276501,-0.22250687,0.30662492,-0.13257244,-0.0893388,0.0459663,0.05705654,0.27713537,-0.11783151,0.1536419,0.04073769,-0.21148412,0.15389377,0.20000692,-0.20786451,0.11117625,-0.23206052,-0.13513288,-0.04533065,0.1796172,0.09400453,-0.3078776,-0.1965603,-0.087301336,-0.0073728333,-0.10483512,-0.02901598,-0.026009481,0.010721265,-0.11611994,0.14167733,0.19638294,-0.12295818,-0.26650345,0.011231209,-0.11770623,-0.05063581,0.18675897,-0.10509589,0.113439076,0.18907101,-0.0645827,0.032712325,-0.12999928,0.18878476,0.13525622,0.2179237,-0.07331129,-0.045461625,0.12847328,-0.05215909,0.11091317,0.09936515,-0.13869624,0.08678051,-0.065565586,0.16686544,-0.07742857,-0.23690082,-0.22862737,0.16192017,-0.2420266,-0.19041197,0.21840172,-0.22502083,-0.20139375,0.1190737,-0.047117174,0.22581373,0.1056025,0.15392117,0.032062344,0.18516059,-0.11092082,-0.21061963,-0.08744259,-0.034361128,0.14691705,0.1951019,-0.20631026,0.15896854,-0.04898193,-0.08307859,0.23634373,0.17033131,-0.11553572,-0.14868008,-0.16520493,0.11180684,0.109717585,0.3301368,-0.039004378,0.010236656,0.11872218,-0.04432696,0.17463009,-0.15959357,-0.14485145,0.059747487,-0.06298025,-0.15039617,-0.08461617,0.16235682,0.08598493,0.15456963,0.056699324,0.1335644,-0.29507107,-0.232507,0.03279299,-0.16170363,0.0057191183,-0.045133345,0.2387638,0.07259064,0.12559861,-0.14493048,0.21407916,-0.051163077,-0.16560473,0.039170243,0.062134996,-0.014748647,0.19542511,0.19444722,0.16550888,0.22052087,-0.35452443,-0.2264518,-0.058048606,-0.121365316,-0.110595316,-0.027637012,0.15659188,0.09170596,0.016901819,-0.069693685,0.22995153,0.19429307,0.1614699,-0.18652475,0.12972419,-0.060732715,0.11371218,-0.060316723,-0.07649769,-0.10151731,-0.16171217,0.2116793,0.061682776,-0.12855898,0.071049236,-0.1385346,-0.1264639,-0.16105834,0.068226665,-0.07333635,-0.14220323,0.030874137,-0.3008596,-0.07691263,-0.011845145,0.18141226,0.201239,0.12484641,-0.09477182,-0.09731054,-0.27238518,-0.16650482,-0.100500196,-0.06457445,-0.20392317,0.09987005,-0.05323666,0.28305545,0.17468558,0.115499735,0.02209716,0.13537346,-0.11914682,0.3147365,0.027858855,0.18613486,0.025192592,0.16785125,-0.18525526,0.18220533,0.12697601,0.12426641,0.16985464,-0.10681447,-0.118962586,0.13948981,-0.11305201,-0.1567191,0.14546834,0.19223268,0.057323307,-0.103667416,0.100123495,0.113777146,-0.1501361,-0.08392952,-0.19079857,-0.087573804,0.15268025,-0.09917003,-0.19359645,-0.021455703,0.15554008,-0.12609607,-0.17123353,-0.13297251,-0.05584984,-0.07507819,0.15733375,0.20156361,-0.0919243,-0.09960876,0.123907045,-0.1859474,-0.12387043,-0.05474323,0.128388,-0.113693625,-0.006617571,0.16219427,-0.052342903,-0.0738359,0.069017634,-0.15081154,0.0068364893,-0.072155625,0.22569929,-0.15120536,0.14051662,0.1908599,-0.034361653,-0.2133712,-0.05347932,-0.15192737,0.11415057,-0.06458967,-0.065681435,-0.24880365,-0.075722925,-0.011398632,-0.18176807,0.112447135,0.17838345,-0.16642952,0.13567461,-0.12376166,-0.075760245
